tree
version=v4
num_class=1
num_tree_per_iteration=1
label_index=0
max_feature_idx=47
objective=regression
feature_names=longitude latitude lag_1 lag_2 lag_3 lag_6 lag_12 rolling_mean_3 rolling_std_3 rolling_sum_3 rolling_mean_6 rolling_std_6 rolling_sum_6 rolling_mean_12 rolling_std_12 rolling_sum_12 month_num quarter month_sin month_cos is_winter is_holiday_season delta_lag momentum imd_decile_2019 income_decile_2019 employment_decile_2019 crime_decile_2019 health_decile_2019 population log_pop crime_per_capita stop_rate imd_pop_interaction anti-social_behaviour_lag_1 bicycle_theft_lag_1 criminal_damage_and_arson_lag_1 drugs_lag_1 other_crime_lag_1 other_theft_lag_1 possession_of_weapons_lag_1 public_order_lag_1 robbery_lag_1 shoplifting_lag_1 theft_from_the_person_lag_1 vehicle_crime_lag_1 violence_and_sexual_offences_lag_1 stop_and_search_count_lag_1
feature_infos=[-5.6696179999999998:1.7564299999999999] [50.042110000000001:55.788274000000001] [0:40] [0:40] [0:31] [0:33] [0:40] [0:29.333333333333329] [0:17.897858344878387] [0:88] [0:31.833333333333329] [0:12.501999840025602] [0:191] [0:31.083333333333329] [0:11.652805618728888] [0:373] -1:1:10:2:3:4:7:5:11:6:8:12:9 -1:1:2:4:3 [-1:1] [-1:1] [0:1] [0:1] [-18:31] [-15.5:15.5] -1:3:2:4:5:6:7:9:8:10:1 -1:3:2:4:5:6:7:10:8:9:1 -1:3:4:5:6:7:10:2:9:8:1 -1:4:3:5:2:6:7:1:8:9:10 [1:10] [1.002:997] [0.69414668089302889:6.9057532763114642] [0:11.562849682954122] [0:98.555020377917756] [0.71098709868827636:55.059499767982778] [0:164] [0:39] [0:22] [0:64] [0:154] [0:517] [0:11] [0:39] [0:54] [0:115] [0:549] [0:48] [0:117] [0:250]
tree_sizes=5471 5746 5822 5742 5498 5624 5658 5536 5594 5531 5792 5615 5788 5795 5236 5572 5762 5771 5758 5371 5304 5337 5285 5546 5742 5464 5428 5615 5522 5342 5802 5185 5443 5505 5168 5002 5480 5238 5286 5384 5260 5262 4993 5024 5345 5218 5382 5069 5503 5412 5661 5309 5516 5066 5788 5653 5771 5205 5059 5726 5549 5346 5506 5461 5818 4954 5882 5558 5853 5653 5597 5736 5822 5711 5685 5644 4946 5533 5470 5654 5403 5614 5336 5774 5613 5669 5644 5513 5571 5589 5231 5292 5771 5657 5309 5205 5308 5278 5307 5267 5334 5120 5160 5736 5475 4890 5367 5342 5528 4889 5675 4959 5462 5363 5026 5534 5188 5513 5193 5419 5278 5392 4713 5192 5081 4713 4955 5250 5365 5755 4817 4595 4783 4945 4761 4834 4647 4736 4421 4956 4885 4703 4755 5465 5079 4695 4484 4903 4376 4317 4651 4787 5023 5098 3804 3825 5309 4842 4397 4629 3321 4372 4636 3795 4140 4142 4546 4076 3886 4483 3733 3951 4295 5397 4944 3466 3767 3372 3224 3476 4033 3391 2893 3398 3809 2344 2515 3764 3549 2492 4620 3328 2546 3656 4233 2337 2496 2638 2880 3818 3563 2963 3032 3489 3356 2975 3037 2947 1981 2423 3193 3214 2571 3121 1894 3828 2867 1699 2506 2417 4610 3365 2938 1506 1893 2437 3931 3000 2655 3443 2234 2323 3747 1844 3224 4073 2676 3319 3121 3693 2023 2405 1950 1795 2492 2472 1676 2675 4125 1181 1256

Tree=0
num_leaves=62
num_cat=11
split_feature=15 15 15 15 14 15 15 7 15 7 15 43 44 44 7 47 29 41 7 16 37 2 27 29 15 43 35 33 2 16 35 2 29 27 16 27 16 47 33 35 27 0 29 27 34 26 0 37 14 14 8 26 33 0 29 14 42 21 2 0 37
split_gain=103644 31189.7 10218 7657.96 6581.86 3154.26 1554.75 1258.8 863.54 539.156 534.347 518.672 491.402 419.199 340.28 295.466 292.318 290.392 229.207 214.253 211.625 172.872 150.695 145.041 121.507 117.942 116.872 102.699 95.9109 90.5851 88.0556 76.5173 73.9669 47.3838 40.1871 31.6702 25.4501 24.9254 24.7929 24.2423 17.1046 16.6807 15.9891 15.8009 13.8807 10.4631 8.98938 8.95705 7.77213 4.44326 4.41371 3.82017 3.00991 1.76827 1.20967 1.09955 1.41317 0.999001 0.882972 0.427247 0.423583
threshold=5.5000000000000009 26.500000000000004 76.500000000000014 13.500000000000002 0.28867513459332811 40.500000000000007 18.500000000000004 12.16666666666667 9.5000000000000018 3.5000000000000004 33.500000000000007 28.500000000000004 1.5000000000000002 22.500000000000004 6.8333333333333348 110.50000000000001 2.2775000000000003 1.5000000000000002 2.8333333333333335 0 4.5000000000000009 1.0000000180025095e-35 1 1.5295000000000003 3.5000000000000004 1.0000000180025095e-35 6.5000000000000009 1.2317505893118132 2.5000000000000004 2 1.0000000180025095e-35 1.0000000180025095e-35 2.4995000000000007 3 4 5 6 2.5000000000000004 1.0821404213347046 1.0000000180025095e-35 7 0.039589414942918857 2.1085000000000007 8 4.5000000000000009 9 -0.32885761217454351 1.5000000000000002 0.28867513459459743 1.0000000180025095e-35 0.5773502691893837 10 6.714110296212179 0.20827350000000003 1.6145000000000003 1.0000000180025095e-35 1.0000000180025095e-35 1.0000000180025095e-35 1.0000000180025095e-35 -0.012931823625689048 1.5000000000000002
decision_type=2 2 2 2 2 2 2 2 2 2 2 2 2 2 2 2 8 2 2 1 2 2 9 10 2 2 2 10 2 1 2 2 8 9 1 9 1 2 8 2 9 2 8 9 2 9 2 2 2 2 2 9 10 2 10 2 2 2 2 2 2
left_child=4 3 5 8 27 10 17 11 22 23 18 14 16 -11 -4 26 -8 19 -3 -5 -12 32 31 -7 35 -23 -9 50 -14 -24 -19 -2 -10 37 41 42 40 47 -39 -36 -37 -35 48 51 -38 -44 52 -26 -6 -48 55 54 -45 -53 -29 60 -57 59 -59 -52 -1
right_child=1 2 7 6 24 9 12 15 21 13 20 -13 28 -15 -16 -17 -18 30 -20 -21 -22 25 29 -25 33 -27 -28 43 -30 -31 -32 -33 -34 34 39 36 44 38 -40 -41 -42 -43 45 46 -46 -47 49 -49 -50 -51 57 53 -54 -55 -56 56 -58 58 -60 -61 -62
leaf_value=0.33466182214920837 0.34784973885625553 0.37201195215845367 0.43814524543428035 0.35293532998287003 0.34152409377073889 0.40039814023883324 0.36129614478480604 0.51233755454410879 0.35001106443569113 0.40694456438954124 0.38321028643469157 0.54131191394639855 0.36895221322417349 0.44270080113884752 0.48319787837132477 0.6308357221427493 0.3682241910927278 0.35861807202284235 0.38088232604741834 0.35724475980349574 0.39944524447544028 0.3524343239096504 0.34806067743528135 0.38635112649549541 0.34527899954165164 0.35654153999926042 0.57664524776879555 0.33702329242420587 0.37638711163633914 0.34551606191582457 0.36329997089773641 0.35026243038169064 0.35654084808377434 0.34597327552186241 0.34300428997971683 0.34471336215548765 0.34051896448832042 0.3619179712159884 0.34822495382173468 0.34689130950879904 0.34170773285778 0.34360142925334863 0.34236788872119422 0.3572539391708992 0.34350278951806784 0.34878322929939382 0.34195826310097799 0.34917649365700643 0.34345731598565782 0.34855828732092442 0.3361377809543844 0.34172857705087573 0.34664524368587746 0.33658072752512014 0.33924956021184272 0.33511156484925875 0.33964524368161997 0.33809351956130607 0.34334089584812871 0.33940714841514158 0.33750238645361336
leaf_weight=306420 11746 3995 120 8161 974 518 12263 26 14816 1470 2237 39 2554 144 152 21 3040 4858 1645 11780 375 16319 9754 680 2998 3375 20 328 953 13550 2401 9519 728 5030 7843 1433 5179 55 1380 699 1611 1552 162 23 709 340 361 256 5699 46 67 192 20 31 139 1544 28 29 23 21 21
leaf_count=306420 11746 3995 120 8161 974 518 12263 26 14816 1470 2237 39 2554 144 152 21 3040 4858 1645 11780 375 16319 9754 680 2998 3375 20 328 953 13550 2401 9519 728 5030 7843 1433 5179 55 1380 699 1611 1552 162 23 709 340 361 256 5699 46 67 192 20 31 139 1544 28 29 23 21 21
internal_value=0.341475 0.356175 0.38779 0.3533 0.33563 0.384296 0.359799 0.490042 0.349554 0.40259 0.378063 0.473102 0.36422 0.410135 0.463322 0.568675 0.362672 0.356742 0.374599 0.355495 0.385541 0.351894 0.347704 0.392425 0.343733 0.353138 0.540297 0.334689 0.370973 0.346583 0.360167 0.348926 0.350317 0.344782 0.344231 0.342443 0.341647 0.346543 0.34875 0.34332 0.343129 0.345408 0.343431 0.34068 0.340879 0.346876 0.343576 0.345586 0.343175 0.342704 0.334666 0.3388 0.35232 0.341033 0.337765 0.334665 0.335192 0.338217 0.340414 0.336918 0.334662
internal_weight=482472 137259 11442 125817 345213 11064 46010 378 79807 2812 8252 311 18810 1614 272 67 15303 27200 5640 19941 2612 35238 44569 1198 35920 19694 46 309293 3507 23304 7259 21265 15544 19813 15124 16107 8932 4689 1435 8542 3044 6582 7175 1140 5888 502 450 3254 6673 407 308153 690 43 223 467 308013 1572 140 52 88 306441
internal_count=482472 137259 11442 125817 345213 11064 46010 378 79807 2812 8252 311 18810 1614 272 67 15303 27200 5640 19941 2612 35238 44569 1198 35920 19694 46 309293 3507 23304 7259 21265 15544 19813 15124 16107 8932 4689 1435 8542 3044 6582 7175 1140 5888 502 450 3254 6673 407 308153 690 43 223 467 308013 1572 140 52 88 306441
cat_boundaries=0 1 2 3 4 5 6 7 8 9 10 11
cat_threshold=496 30 7174 14 7682 62 7170 320 1632 1088 1144
is_linear=0
shrinkage=1


Tree=1
num_leaves=63
num_cat=14
split_feature=13 13 13 13 14 13 13 39 13 7 39 39 44 2 29 39 29 13 39 43 13 16 39 39 16 13 35 13 42 16 33 39 44 34 45 27 16 25 47 33 35 16 29 27 27 27 29 14 27 16 25 27 33 11 33 45 41 37 29 13 21 29
split_gain=99540.3 29954.5 9815.95 7354.84 6321.31 3079.47 1493.1 1285.16 829.325 650.648 636.903 611.747 471.942 421.89 397.311 334.035 280.742 280.177 232.064 226.194 221.007 167.018 163.696 162.262 148.408 138.92 117.698 116.681 103.493 99.2242 98.6377 94.4798 75.9056 69.6412 51.958 45.5074 38.5957 30.737 23.9384 23.8111 23.2823 21.13 18.0457 17.505 17.4722 15.1735 14.8812 12.0458 11.584 8.84422 4.10887 3.96942 3.52248 3.21728 2.67531 1.64775 1.60546 0.926954 0.803884 0.662778 0.513458 0.134976
threshold=0.45833333333333343 2.2083333333333335 6.541666666666667 1.1250000000000002 0.28867513459332811 3.3750000000000004 1.5416666666666667 50.500000000000007 0.79166666666666685 12.16666666666667 5.5000000000000009 28.500000000000004 1.5000000000000002 5.5000000000000009 1.3065000000000002 1.5000000000000002 2.2775000000000003 2.8750000000000004 1.5000000000000002 27.500000000000004 13.375000000000002 0 1.5000000000000002 32.500000000000007 1 3.7916666666666674 7.5000000000000009 0.29166666666666669 1.5000000000000002 2 10.666818694243567 4.5000000000000009 1.0000000180025095e-35 4.5000000000000009 7.5000000000000009 3 4 5 2.5000000000000004 1.0821404213347046 1.0000000180025095e-35 6 1.7485000000000002 7 8 9 1.7425000000000004 0.28867513459459743 10 11 12 13 4.9082706829289853 0.408248290464643 5.8161853270190731 1.0000000180025095e-35 1.0000000180025095e-35 1.5000000000000002 2.1015000000000001 1.0000000180025095e-35 1.0000000180025095e-35 2.4675000000000007
decision_type=2 2 2 2 2 2 2 2 2 2 2 2 2 2 10 2 8 2 2 2 2 1 2 2 1 2 2 2 2 1 8 2 2 2 2 9 1 9 2 8 2 1 8 9 9 9 8 2 9 1 9 9 10 2 10 2 2 2 10 2 2 10
left_child=4 3 5 8 30 10 15 13 22 19 17 14 16 34 -7 21 -8 -3 24 -9 -11 -5 29 -12 -10 -13 -15 37 -17 -2 45 -14 -20 -24 -4 38 46 42 49 -40 -38 44 47 -43 -39 50 -37 -6 -44 -29 52 56 -1 57 -53 -52 -47 59 60 -32 -55 -60
right_child=1 2 7 6 27 11 12 9 18 20 23 25 31 26 -16 28 -18 -19 32 -21 -22 -23 33 -25 -26 -27 -28 35 -30 -31 53 -33 -34 -35 -36 36 40 41 39 -41 -42 43 48 -45 -46 51 -48 -49 -50 -51 55 54 -54 58 -56 -57 -58 -59 61 -61 -62 -63
leaf_value=-0.0040543425484989466 0.0067513449296632468 0.030467891635760747 0.071737191242686779 0.010868302028450525 -0.001282216380179768 0.066971449182235507 0.019424978122133365 0.14456785113844153 0.010738893345927029 0.2136720969941881 0.044885263316977175 0.061321014265219374 0.026262155136519298 0.12870335355557894 0.050974337749235349 0.0169776619375306 0.026214463851561672 0.040641603531508606 0.011647301855766123 0.21059314908652471 0.29906812581149017 0.01497604633747289 0.0070248693521965527 0.084618663816224959 0.0076321139132288045 0.099636836098559084 0.1741443525950114 0.0014494297211755536 0.022597808092254253 0.0045801230921921248 -0.0066766582788433549 0.032980912747718041 0.015449627120035432 0.010538272041151179 0.10406413159767787 0.0031684036949416136 0.0014989605081274424 0.003099728038215099 0.020034367994828658 0.0066152109503746035 0.0053082397115418161 0.00089152566297554675 0.0047371192922327967 -0.0014361449507013639 4.41350906494245e-05 -0.0002864157215312675 0.0051672046014016636 0.0015477422442247515 0.0020814637931025758 0.0044656052647022151 -0.0049495357679870894 0.0035212482471723818 0.00073227957864502563 -0.0056494990974954029 0.010262853162629265 -0.0022480362131647824 0.0034612753370712548 -0.0028981858721146216 -0.001043839624949864 -0.0062354554240292275 -0.0038316200757294561 -0.0032615848468697589
leaf_weight=89 14557 4874 59 7221 710 1027 12263 73 12634 27 1944 48 2126 95 1571 8608 3040 1392 6947 29 22 9825 5531 42 12647 179 30 491 1546 20669 306420 1381 3010 3812 30 4303 7843 1407 55 1380 699 2015 1109 3572 1598 216 2279 3942 1754 2763 265 148 199 206 28 137 58 26 21 1368 89 23
leaf_count=89 14557 4874 59 7221 710 1027 12263 73 12634 27 1944 48 2126 95 1571 8608 3040 1392 6947 29 22 9825 5531 42 12647 179 30 491 1546 20669 306420 1381 3010 3812 30 4303 7843 1407 55 1380 699 2015 1109 3572 1598 216 2279 3942 1754 2763 265 148 199 206 28 137 58 26 21 1368 89 23
internal_value=2.06793e-08 0.0144068 0.0453888 0.0115892 -0.00572821 0.0420261 0.0179578 0.147438 0.00791766 0.192115 0.0358561 0.0600491 0.0222903 0.115914 0.0572981 0.0149617 0.0207737 0.032728 0.0102106 0.16334 0.252013 0.0132511 0.00610482 0.0457255 0.00919197 0.0915348 0.139609 0.00221337 0.0178334 0.00548059 -0.00665051 0.0289079 0.0127967 0.00845836 0.0826339 0.00324114 0.00270097 0.000949135 0.00496705 0.00712953 0.00180856 0.000130708 0.00188217 -0.000596557 0.00148036 -0.000778358 0.00385463 0.00111583 0.00313396 0.00402867 -0.00262103 0.00205955 -0.000721855 -0.00667223 0.0043468 -0.00393109 0.000489043 -0.00667438 -0.00472492 -0.0066747 -0.00510105 -0.00220312
internal_weight=482472 137259 11442 125817 345213 11077 46010 365 79807 151 8252 2825 18810 214 2598 27200 15303 6266 35238 102 49 17046 44569 1986 25281 227 125 35920 10154 35226 309293 3507 9957 9343 89 19813 15124 16107 4689 1435 8542 8592 7515 5587 3005 1140 6582 4652 2863 3254 690 450 288 308153 176 402 274 307814 339 307788 295 44
internal_count=482472 137259 11442 125817 345213 11077 46010 365 79807 151 8252 2825 18810 214 2598 27200 15303 6266 35238 102 49 17046 44569 1986 25281 227 125 35920 10154 35226 309293 3507 9957 9343 89 19813 15124 16107 4689 1435 8542 8592 7515 5587 3005 1140 6582 4652 2863 3254 690 450 288 308153 176 402 274 307814 339 307788 295 44
cat_boundaries=0 1 2 3 4 5 6 7 8 9 10 11 12 13 14
cat_threshold=496 7182 7174 14 7682 62 7170 124 360 1632 398 80 752 384
is_linear=0
shrinkage=0.02


Tree=2
num_leaves=63
num_cat=7
split_feature=15 15 15 15 15 15 15 7 31 44 7 46 31 36 44 44 43 34 47 44 46 7 19 29 15 15 31 44 7 24 15 46 10 25 46 44 29 0 2 25 42 41 0 24 19 46 34 44 15 17 29 25 1 29 31 46 29 8 21 24 46 8
split_gain=95612.2 27390.5 9166.84 8548.1 6576.21 2785.96 1406.63 1039.73 678.797 676.768 460.514 451.859 445.896 325.537 302.275 294.129 276.614 257.951 239.899 233.864 227.771 220.195 212.713 183.753 182.409 166.743 155.826 122.312 116.543 79.3097 75.7129 70.9758 69.8805 63.7213 58.2267 52.857 42.2169 29.892 29.405 23.1568 22.185 46.4771 20.7006 19.2112 17.3115 16.2912 15.8118 13.8192 12.9533 12.0093 10.2586 9.25091 9.06386 6.21046 5.78548 5.15949 5.05257 4.36349 3.43342 2.82011 2.60988 1.35355
threshold=6.5000000000000009 27.500000000000004 83.500000000000014 1.5000000000000002 16.500000000000004 40.500000000000007 11.500000000000002 12.16666666666667 1.2863115165487309 1.5000000000000002 2.8333333333333335 11.500000000000002 0.82253756305613901 11.500000000000002 3.5000000000000004 1.0000000180025095e-35 41.500000000000007 1.0000000180025095e-35 110.50000000000001 6.5000000000000009 5.5000000000000009 0.50000000000000011 -0.24999999999999994 1.8415000000000001 22.500000000000004 4.5000000000000009 0.82907283605918103 1.0000000180025095e-35 6.8333333333333348 0 22.500000000000004 5.5000000000000009 12.91666666666667 1 3.5000000000000004 6.5000000000000009 1.7715000000000003 0.021031274778171554 1.0000000180025095e-35 2 1.5000000000000002 2.5000000000000004 -0.027553033837689096 3 1.0000000180025095e-35 1.0000000180025095e-35 2.5000000000000004 1.0000000180025095e-35 2.5000000000000004 4 1.7355000000000003 5 51.560083713205437 1.4555000000000002 0.37943465603971288 2.5000000000000004 1.4765000000000004 0.5773502691893837 1.0000000180025095e-35 6 4.5000000000000009 0.57735026918912602
decision_type=2 2 2 2 2 2 2 2 8 2 2 2 8 2 2 2 2 2 2 2 2 2 2 10 2 2 8 2 2 9 2 2 2 9 2 2 8 2 2 9 2 2 2 9 2 2 2 2 2 1 8 9 2 10 10 2 10 2 2 9 2 2
left_child=3 4 5 17 6 10 21 11 14 12 19 28 23 -10 -7 22 -13 33 32 -3 -12 29 -8 -6 -14 34 35 -23 -4 -2 -28 -17 -9 53 37 -11 38 48 42 60 44 -42 -27 -39 -36 51 52 -40 -5 -48 55 54 -38 61 -19 -47 -55 -41 -52 -53 -35 -1
right_child=1 2 7 25 9 8 15 18 13 26 20 16 24 -15 -16 31 -18 45 -20 -21 -22 27 -24 -25 -26 36 30 -29 -30 -31 -32 -33 -34 39 40 -37 46 43 47 57 41 -43 -44 -45 -46 50 49 -49 -50 -51 58 59 -54 56 -56 -57 -58 -59 -60 -61 -62 -63
leaf_value=-0.0035694325990713988 0.0068968021515247611 0.030813915841840119 0.065195583936415225 0.00053579756522334271 0.015397454302129221 0.038696025118586566 0.0095087308821135818 0.22043313949004464 0.066145971541192561 0.023674511518860415 0.034548095072867213 0.13990356735126702 0.021172234922477662 0.14729409134387969 0.060246409120279197 0.014446460937238803 0.21388477740080461 -0.00092524322233116657 0.27851008324396043 0.046774855384755676 0.046936225603319691 0.0078776159264962575 0.0131249426392008 0.019519325860920995 0.028278795810600152 0.0035251633249724309 0.028316186144028182 0.011240010939919188 0.11954007749204282 0.0043560909351588809 0.036906098852646334 0.018335822919813487 0.16997158368428547 -0.0024218681845081945 0.0021857193128941707 0.030934717456923364 0.0036686241130474079 0.0016704203335873979 0.0044461219457854074 -0.0065394657359921816 0.0066254669073082155 0.03753982088782571 0.0014948154505107431 -0.00095548266337509543 0.004439753098992502 -0.0015357300313406214 0.0080928336456418046 0.0080293541370319715 0.002070637460575286 0.0054962857857583057 0.0018256384580239763 -0.0014253843331154975 0.0061095338544639513 0.0085119792421658839 0.010140764802694321 0.00094051057779336283 4.8980251111482318e-05 -0.0030450088077491819 0.0057578715457106532 -0.0053439036025955348 0.0038680750557354522 0.0017115408749807449
leaf_weight=257 11073 4134 38 2911 8751 672 11324 23 1753 2771 899 167 4212 20 425 4710 23 343 21 403 1748 27178 15294 8556 2199 6364 891 5147 27 9156 761 3120 21 458 2878 469 2258 1617 4506 307782 168 22 2935 3528 2589 860 1110 476 8998 3140 548 121 833 30 20 553 475 143 106 408 28 21
leaf_count=257 11073 4134 38 2911 8751 672 11324 23 1753 2771 899 167 4212 20 425 4710 23 343 21 403 1748 27178 15294 8556 2199 6364 891 5147 27 9156 761 3120 21 458 2878 469 2258 1617 4506 307782 168 22 2935 3528 2589 860 1110 476 8998 3140 548 121 833 30 20 553 475 143 106 408 28 21
internal_value=4.94491e-08 0.0149766 0.0461078 -0.00529281 0.0121831 0.0427538 0.00944778 0.151489 0.0594105 0.0205012 0.0360994 0.133287 0.0191042 0.0670613 0.0470451 0.0125888 0.148859 -0.00645995 0.222893 0.0322316 0.0427288 0.00738888 0.0115865 0.0174352 0.0236098 0.00292514 0.0272743 0.008413 0.0877695 0.00575239 0.0322732 0.0159962 0.196349 -0.0065162 0.00172835 0.0247254 0.00418222 0.0011451 0.0035486 -0.00653057 0.00348665 0.010205 0.00288433 -0.000128809 0.00325316 -0.00058292 0.00541483 0.00478848 0.00169547 0.00620642 0.000391949 -0.00284195 0.00432643 -0.000760122 -0.000307086 -0.000566614 0.000551733 -0.00653763 0.00246297 -0.00449068 -0.00201796 -0.00317051
internal_weight=482472 125986 10374 356486 115612 10054 87002 320 2870 28610 7184 255 23718 1773 1097 34448 190 312153 65 4537 2647 52554 26618 17307 6411 44333 4892 32325 65 20229 1652 7830 44 309194 22711 3240 21622 17054 14281 308411 5657 190 9299 5145 5467 2959 7341 4982 11909 4250 2067 892 3091 783 363 1413 505 307925 654 529 486 278
internal_count=482472 125986 10374 356486 115612 10054 87002 320 2870 28610 7184 255 23718 1773 1097 34448 190 312153 65 4537 2647 52554 26618 17307 6411 44333 4892 32325 65 20229 1652 7830 44 309194 22711 3240 21622 17054 14281 308411 5657 190 9299 5145 5467 2959 7341 4982 11909 4250 2067 892 3091 783 363 1413 505 307925 654 529 486 278
cat_boundaries=0 1 2 3 4 5 6 7
cat_threshold=62 1488 548 118 16 1504 528
is_linear=0
shrinkage=0.02


Tree=3
num_leaves=62
num_cat=4
split_feature=13 13 13 28 13 13 39 13 13 39 7 31 31 2 39 31 39 39 13 13 39 39 39 1 35 39 29 19 12 19 42 34 31 27 35 27 13 17 0 19 42 1 35 19 39 29 24 39 11 7 1 1 13 19 21 1 37 13 3 0 18
split_gain=91826.1 26317.8 9068.37 8499.31 5788.66 2788.44 1264.46 1065.05 791.26 600.571 600.406 583.122 406.826 379.888 333.134 301.94 287.968 255.154 212.566 210.441 200.245 197.247 193.95 172.423 170.035 154.653 148.304 131.935 128.893 110.748 83.1441 68.2314 68.2018 62.0924 52.8973 45.9793 41.5283 31.9496 30.6943 22.9127 21.6718 55.9437 20.9186 18.2319 17.2807 14.0928 12.5137 6.83635 6.79205 2.6081 2.66778 2.02757 1.46928 1.97477 0.949302 0.990755 0.928973 0.512023 0.50589 0.504932 0.146528
threshold=0.54166666666666685 2.2083333333333335 6.3750000000000009 1.0000000180025095e-35 1.2083333333333337 3.3750000000000004 50.500000000000007 1.6250000000000002 0.87500000000000011 5.5000000000000009 12.16666666666667 1.1194552009056318 0.81710474074311479 5.5000000000000009 28.500000000000004 0.81710474074311479 2.5000000000000004 1.5000000000000002 13.375000000000002 0.37500000000000006 4.5000000000000009 22.500000000000004 1.5000000000000002 51.51331529179317 1.0000000180025095e-35 32.500000000000007 1.8585000000000003 1.0000000180025095e-35 46.500000000000007 1.0000000180025095e-35 1.5000000000000002 7.5000000000000009 0.44043164434926491 0 1.5000000000000002 1 0.20833333333333334 2 0.053964375647694011 0.25000000000000017 1.5000000000000002 51.601329006244207 1.5000000000000002 -0.24999999999999994 2.5000000000000004 1.7555000000000003 3 1.5000000000000002 0.408248290464643 0.50000000000000011 51.511519812249105 51.560083713205437 0.12499999999999996 0.6830127018922193 1.0000000180025095e-35 51.558196356247748 1.5000000000000002 1.0000000180025095e-35 1.0000000180025095e-35 -0.069599745294035884 0.25000000000000006
decision_type=2 2 2 10 2 2 2 2 2 2 2 8 8 2 2 8 2 2 2 2 2 2 2 2 2 2 8 2 2 2 2 2 8 9 2 9 2 1 2 2 2 2 2 2 2 10 9 2 2 2 2 2 2 2 2 2 2 2 2 2 2
left_child=3 4 5 48 8 9 13 16 22 15 23 21 20 34 -13 -3 24 27 -12 33 -9 -7 29 -8 -6 -11 -14 -10 -15 -2 -18 -24 -19 40 -4 42 45 -38 39 -37 44 -42 43 -21 -5 -35 -40 -44 52 54 -51 -52 56 60 58 -56 57 -1 -50 -55 -54
right_child=1 2 6 19 7 11 10 12 17 25 18 14 26 28 -16 -17 30 32 -20 35 -22 -23 31 -25 -26 -27 -28 -29 -30 -31 -32 -33 -34 36 -36 38 37 -39 46 -41 41 -43 47 -45 -46 -47 -48 -49 49 50 51 -53 53 59 55 -57 -58 -59 -60 -61 -62
leaf_value=-0.0064125608281093852 0.004946536927118785 0.026996506340694153 0.056283339964491981 0.0029047417015375609 0.013152177916021617 0.041983777695308533 0.12115816155501774 0.01882939124958664 0.0082148649792279111 0.043210340613506953 0.20471494339130544 0.061254887082474556 0.022625032461404432 0.10687902570939532 0.090383864120940946 0.035777246033475305 0.0182220630253488 0.012518468242618421 0.28846432772549718 0.0039419915939399273 0.02712646181143603 0.076660312422564325 0.0083811859752875289 0.17592989420712882 0.017660865739021866 0.082000883675756919 0.029718160628072369 0.011294840135168068 0.14737182551767769 0.0072401718156985106 0.024386123098568482 0.012385269942129181 0.016132673291643213 -0.00060953424179513698 0.089089823925133912 0.0029648063700255111 0.0032528135176423003 0.0010638059465413166 -0.00022830033282119272 0.0049009220172146822 0.0061586770340800292 0.040173641930926929 0.0085306619000590708 0.0057755666540896767 0.0077570168120520457 0.0013619551163395161 0.0026764071338316975 0.015631847849914008 -0.0058110645400823923 -0.005566408672640401 0.0049888198077678685 -0.0030089954535166426 -0.0052927155476627926 0.0013049893487583509 -0.0025232465095348191 -0.0066196296811103818 -0.0025553583860397338 -0.006023063938790014 -0.0038193328472284171 -0.0030307142507462275 -0.0068038596993400934
leaf_weight=306388 17033 3117 28 4318 14066 865 35 8878 11103 1944 27 1703 1951 51 173 3149 4285 6786 22 3663 1339 71 7620 67 4390 42 2980 11150 82 16654 1100 2192 3017 6213 66 5792 3669 9840 1171 4231 160 22 153 5319 315 1892 1197 84 237 31 32 21 66 22 111 30 25 1356 65 21 42
leaf_count=306388 17033 3117 28 4318 14066 865 35 8878 11103 1944 27 1703 1951 51 173 3149 4285 6786 22 3663 1339 71 7620 67 4390 42 2980 11150 82 16654 1100 2192 3017 6213 66 5792 3669 9840 1171 4231 160 22 153 5319 315 1892 1197 84 237 31 32 21 66 22 111 30 25 1356 65 21 42
internal_value=5.62353e-08 0.014677 0.0435991 -0.00518695 0.011788 0.040308 0.139927 0.0180468 0.0085582 0.0344469 0.184777 0.0575079 0.0221938 0.110093 0.0639411 0.0314093 0.0154119 0.0109424 0.242317 0.00263822 0.0199168 0.0446142 0.0068012 0.157136 0.0142246 0.0440307 0.0269117 0.00975811 0.131845 0.00608045 0.0194812 0.0092757 0.0136308 0.00144125 0.0793177 0.00410212 0.000982028 0.00166153 0.0032956 0.0037821 0.00349334 0.0102704 0.00517694 0.00502781 0.00323465 -0.000149317 0.00125034 0.0110475 -0.00640568 -0.0041371 -0.000906016 0.00181987 -0.00640956 -0.0044372 -0.00474977 -0.00339482 -0.00641053 -0.00641084 -0.00538238 -0.000812447 -0.00588038
internal_weight=482472 125986 11442 356486 114544 11064 378 38989 75555 8252 151 2812 15148 227 1876 6266 23841 32056 49 48039 10217 936 43499 102 18456 1986 4931 22253 133 33687 5385 9812 9803 26429 94 21610 21614 13509 12391 10023 4815 182 9219 8982 4633 8105 2368 237 308447 527 84 53 307920 151 443 141 307769 307744 302 43 108
internal_count=482472 125986 11442 356486 114544 11064 378 38989 75555 8252 151 2812 15148 227 1876 6266 23841 32056 49 48039 10217 936 43499 102 18456 1986 4931 22253 133 33687 5385 9812 9803 26429 94 21610 21614 13509 12391 10023 4815 182 9219 8982 4633 8105 2368 237 308447 527 84 53 307920 151 443 141 307769 307744 302 43 108
cat_boundaries=0 1 2 3 4
cat_threshold=14 30 16 1808
is_linear=0
shrinkage=0.02


Tree=4
num_leaves=59
num_cat=4
split_feature=13 13 13 28 13 13 13 39 44 39 39 31 13 31 39 31 29 1 39 13 19 39 13 31 39 13 31 36 18 46 35 34 13 46 16 0 27 35 45 33 47 16 46 44 16 34 43 11 46 13 19 18 31 37 46 0 18 31
split_gain=88189.8 25280.3 8459.65 8162.79 6078.4 2565.58 1299.27 1103.55 637.824 637.299 537.969 536.336 432.129 412.509 342.085 269.115 255.634 241.325 223.4 202.106 182.977 175.321 167.285 145.577 142.542 141.742 138.077 130.955 102.671 95.148 72.9303 72.6263 70.3153 66.9542 44.6524 36.7033 33.3348 32.1519 26.3199 24.7571 50.5484 20.1536 19.7937 17.117 16.7155 13.2409 12.3574 6.52308 5.08214 1.4111 1.89657 1.25388 1.25048 0.892186 0.754885 0.484936 0.140726 0.07223
threshold=0.54166666666666685 2.291666666666667 6.9583333333333348 1.0000000180025095e-35 1.3750000000000002 3.3750000000000004 0.95833333333333337 50.500000000000007 1.5000000000000002 28.500000000000004 5.5000000000000009 1.2863115165487309 13.375000000000002 0.82253756305613901 1.5000000000000002 0.85348513309026219 1.4005000000000003 51.52105903134202 1.5000000000000002 0.37500000000000006 -0.24999999999999994 1.5000000000000002 1.8750000000000002 0.82907283605918103 32.500000000000007 3.7916666666666674 1.0000000180025095e-35 4.5000000000000009 0.25000000000000006 6.5000000000000009 3.5000000000000004 4.5000000000000009 1.8750000000000002 3.5000000000000004 0 0.021031274778171554 1 1.0000000180025095e-35 1.0000000180025095e-35 1.0821404213347046 3.5000000000000004 2 4.5000000000000009 2.5000000000000004 3 6.5000000000000009 2.5000000000000004 0.408248290464643 2.5000000000000004 0.12499999999999996 0.6830127018922193 1.0000000180025095e-35 1.0000000180025095e-35 1.5000000000000002 1.0000000180025095e-35 -0.069599745294035884 0.25000000000000006 0.38887810142194951
decision_type=2 2 2 10 2 2 2 2 2 2 2 8 2 8 2 8 10 2 2 2 2 2 2 8 2 2 8 2 2 2 2 2 2 2 1 2 9 2 2 10 2 1 2 2 1 2 2 2 2 2 2 2 10 2 2 2 2 10
left_child=3 4 5 47 6 10 18 17 13 11 15 -7 16 21 20 -3 -9 27 26 33 -8 -6 -15 30 -12 -11 -2 -4 -19 -16 -10 -20 -25 35 36 38 43 42 -5 40 -35 -37 -36 -21 -41 -38 -39 49 51 53 56 52 -49 54 -1 -52 -51 -53
right_child=1 2 7 19 8 9 14 12 23 25 24 -13 -14 22 29 -17 -18 28 31 34 -22 -23 -24 32 -26 -27 -28 -29 -30 -31 -32 -33 -34 39 37 41 45 46 -40 44 -42 -43 -44 -45 -46 -47 -48 48 -50 50 55 57 -54 -55 -56 -57 -58 -59
leaf_value=-0.0062874848530541294 0.0052506812714844375 0.02702837786180607 0.083280166192423732 0.0003784831306236086 0.015108684773431467 0.042892726797323963 0.0085843465096832067 0.2067680444924728 0.0229889050540244 0.057000759591658907 0.043276513091781564 0.06141919024638557 0.25952302985721165 0.020339981997907444 0.013675800048090023 0.035977906665112962 0.14553833297050711 0.17921751399834951 0.0080565931932186311 0.0057502199415475352 0.012200710216130539 0.019226357570530747 0.027145559594760216 0.027290564624281175 0.081455897212028491 0.095309074828118984 0.0075981493585436238 0.1261961979644243 0.12329482580053397 0.017598527670733312 0.034792695609728495 0.011137252816449093 0.035568630150207239 0.00563339648308692 0.0022111075401792389 0.00086319899233312553 0.0032796433166258992 0.0058526840695827479 0.0021539469026470846 0.0042458440975450852 0.033258549608290194 -0.0014205899609916126 0.0044283548639192961 0.015987657624663729 0.0021049573053639825 0.0074106053825634633 0.017306910585134457 -0.0046986265462121849 0.0043974749026475133 -0.0051868612748203861 0.00127888945015994 -0.0063541557974771627 -0.0021746625571415342 -0.0025042511463165286 -0.0060806227339096032 -0.0029700999600546702 -0.0066677824088505339 -0.0052734435163438323
leaf_weight=300518 21061 2684 84 5685 10470 1027 9660 46 3015 48 1768 1597 27 4212 7879 2692 67 24 6809 6423 13304 6837 2199 891 40 198 19123 43 29 3605 225 5561 761 154 7355 2735 4221 1109 8096 2505 32 3531 2062 66 3691 335 39 243 27 66 22 109 116 25 7226 21 42 32
leaf_count=300518 21061 2684 84 5685 10470 1027 9660 46 3015 48 1768 1597 27 4212 7879 2692 67 24 6809 6423 13304 6837 2199 891 40 198 19123 43 29 3605 225 5561 761 154 7355 2735 4221 1109 8096 2505 32 3531 2062 66 3691 335 39 243 27 66 22 109 116 25 7226 21 42 32
internal_value=5.79769e-08 0.0143835 0.0442916 -0.00508321 0.0116998 0.0410695 0.00907006 0.145526 0.0196969 0.0570538 0.0346837 0.0541682 0.187639 0.0183407 0.0120889 0.0315098 0.170464 0.112771 0.00709129 0.00258548 0.0106795 0.0167353 0.0226743 0.0262722 0.0441212 0.0878343 0.00636781 0.0978108 0.148618 0.0149072 0.0238086 0.00944152 0.0311039 0.00141245 0.0040201 0.000844476 0.00491314 0.00307892 0.00142152 0.00319658 0.0103861 -0.000424645 0.00269661 0.00584534 0.00298075 0.00357554 0.00624181 -0.00627757 -0.00405436 -0.00628137 -0.00434845 -0.00451076 -0.00388308 -0.00628232 -0.00628263 -0.000796198 -0.00576278 -0.00610889
internal_weight=482472 125986 10374 356486 115612 10054 87002 320 28610 2870 7184 2624 140 23718 34448 5376 113 180 52554 48039 22964 17307 6411 4892 1808 246 40184 127 53 11484 3240 12370 1652 26429 21610 20047 11045 10565 13781 6382 186 6266 9417 6489 6196 4556 1148 308447 527 307920 151 500 359 307769 307744 43 108 141
internal_count=482472 125986 10374 356486 115612 10054 87002 320 28610 2870 7184 2624 140 23718 34448 5376 113 180 52554 48039 22964 17307 6411 4892 1808 246 40184 127 53 11484 3240 12370 1652 26429 21610 20047 11045 10565 13781 6382 186 6266 9417 6489 6196 4556 1148 308447 527 307920 151 500 359 307769 307744 43 108 141
cat_boundaries=0 1 2 3 4
cat_threshold=7690 62 7180 7178
is_linear=0
shrinkage=0.02


Tree=5
num_leaves=60
num_cat=4
split_feature=13 13 13 13 28 13 39 13 13 7 7 39 39 44 2 39 30 43 39 13 39 8 19 30 39 44 19 47 13 19 34 44 46 34 46 16 32 0 34 0 46 30 45 8 16 39 25 35 16 46 13 0 0 19 46 39 0 37 45
split_gain=84703.8 25522.6 8659.5 5791.23 5453.99 2961.45 1163.37 1080.26 717.947 680.561 560.568 492.792 414.128 372.659 358.67 293.837 237.909 202.114 201.539 197.155 166.384 162.454 159.657 150.771 144.689 138.95 136.088 129.589 109.537 92.6552 84.6265 69.0135 64.2004 62.7001 57.5536 38.3043 22.3506 21.5841 18.2751 18.1808 17.5222 14.0013 9.52727 8.96235 8.78915 7.05242 6.62705 4.74964 4.72716 4.15287 1.63605 1.21624 0.956267 0.937944 0.59672 0.798974 0.461017 0.115207 0.034675
threshold=0.45833333333333343 2.1250000000000004 6.3750000000000009 1.1250000000000002 1.0000000180025095e-35 3.041666666666667 50.500000000000007 1.5416666666666667 0.79166666666666685 3.5000000000000004 12.16666666666667 28.500000000000004 5.5000000000000009 1.0000000180025095e-35 5.5000000000000009 1.5000000000000002 1.114649652915259 27.500000000000004 1.5000000000000002 13.375000000000002 7.5000000000000009 2.0816659994661246 -0.24999999999999994 1.1904315222004269 1.5000000000000002 31.500000000000004 1.0000000180025095e-35 2.5000000000000004 0.20833333333333334 0.25000000000000017 6.5000000000000009 1.0000000180025095e-35 3.5000000000000004 4.5000000000000009 11.500000000000002 0 3.2193776626617345 0.047341219427391557 4.5000000000000009 0.026726101951250854 1.0000000180025095e-35 1.011055291771606 4.5000000000000009 0.5773502691893837 1 2.5000000000000004 2 1.0000000180025095e-35 3 1.5000000000000002 1.0000000180025095e-35 0.067123928805252059 -0.35041083712923721 0.6830127018922193 1.0000000180025095e-35 1.0000000180025095e-35 -0.24788847224435587 1.0000000180025095e-35 1.0000000180025095e-35
decision_type=2 2 2 2 10 2 2 2 2 2 2 2 2 2 2 2 8 2 2 2 2 2 2 8 2 2 2 2 2 2 2 2 2 2 2 1 8 2 2 2 2 8 2 2 1 2 9 2 1 2 2 2 2 2 2 2 2 2 2
left_child=4 3 5 8 43 12 14 15 24 20 17 -11 16 23 34 22 -3 -8 26 -12 -7 -16 -5 -9 29 -14 -10 -15 40 -2 -17 -20 35 -26 -4 39 38 -37 -34 -30 46 44 -38 50 -42 -43 47 -6 -48 51 54 56 58 -54 57 -56 -45 -1 -52
right_child=1 2 6 7 28 9 10 13 18 11 19 -13 25 27 21 30 -18 -19 31 -21 -22 -23 -24 -25 33 -27 -28 -29 32 -31 -32 -33 36 -35 -36 37 42 -39 -40 -41 41 45 -44 49 -46 -47 48 -49 -50 -51 52 -53 53 -55 55 -57 -58 -59 -60
leaf_value=-0.0061632218660851281 0.004158929690110896 0.024588247769504683 0.060603109281510116 0.0099383406528655953 -0.0001936352275173116 0.039556291594224822 0.13301004900099481 0.016844757616275186 0.0070108562290805169 0.056524963259631605 0.19684812854837488 0.091299663254335611 0.038315569346291677 0.020368004341432055 0.1524853842823129 0.014819259509538805 0.032166351685338455 0.19542200203599602 0.01074080774745307 0.27750458023764873 0.052152692541454854 0.10781945323375496 0.013855485867604652 0.022965400303809013 0.0064591210246452528 0.079740170619704509 0.0099456191384680991 0.026214845762997867 0.0033819711753125571 0.0062419849795906012 0.018484620486875374 0.01436640314426137 0.0032547419990282852 0.0097928408246413107 0.091909333603537605 0.0016316723571006087 0.0078383726816551366 -0.00065102720521946445 0.0054355601682804225 0.0014633453792291171 0.0012687108510020953 0.0017359691429374828 0.02010561497123153 -0.0011636497215791182 -0.00053762829712542448 0.0069364655776457352 0.00034544463132644867 0.006952998699286045 -0.0025474287195615115 0.0044920071959495544 -0.006225126252786534 0.00093879948059717819 -0.0055671874437189317 -0.0043061607652976194 -0.0060052545734533861 -0.0043660508305573267 -0.0042638922810554506 -0.0058143019078589365 -0.0054496611158053078
leaf_weight=298923 20669 3452 48 7221 805 1445 73 9011 12647 1824 27 179 1750 2442 57 5515 3187 29 6947 22 591 76 9825 1960 5531 33 12634 4000 7604 14557 4639 3010 4956 3812 46 7293 408 2144 2228 2669 1598 2015 27 22 3256 110 276 39 1341 32 592 24 868 324 6985 121 150 379 24
leaf_count=298923 20669 3452 48 7221 805 1445 73 9011 12647 1824 27 179 1750 2442 57 5515 3187 29 6947 22 591 76 9825 1960 5531 33 12634 4000 7604 14557 4639 3010 4956 3812 46 7293 408 2144 2228 2669 1598 2015 27 22 3256 110 276 39 1341 32 592 24 868 324 6985 121 150 379 24
internal_value=5.92217e-08 0.0132899 0.0401372 0.0105195 -0.00528405 0.0372764 0.134444 0.0162906 0.00729334 0.0513556 0.177463 0.0596326 0.0305244 0.0201802 0.105827 0.0138005 0.0282261 0.150755 0.00942671 0.233061 0.0432127 0.126962 0.0121961 0.0179382 0.00560661 0.0390823 0.00847748 0.0239985 0.00199695 0.00501974 0.0164938 0.0118368 0.00263852 0.0078193 0.0759232 0.00203583 0.00419764 0.00111189 0.00393109 0.00288069 0.000139586 0.000651266 0.00859979 -0.00615201 5.85482e-05 0.00200517 -0.00131145 0.000135001 -0.00205457 -0.0021882 -0.00615494 -0.00327884 -0.00555508 -0.00522443 -0.00615848 -0.00597734 -0.00386735 -0.00616278 -0.00619491
internal_weight=482472 137259 12839 124420 345213 12461 378 44613 79807 4039 151 2003 8422 17413 227 27200 6639 102 35238 49 2036 133 17046 10971 44569 1783 25281 6442 36769 35226 10154 9957 27329 9343 94 19710 7619 9437 7184 10273 9440 6979 435 308444 4854 2125 2461 844 1617 228 308216 196 1808 1192 306408 7106 172 299302 616
internal_count=482472 137259 12839 124420 345213 12461 378 44613 79807 4039 151 2003 8422 17413 227 27200 6639 102 35238 49 2036 133 17046 10971 44569 1783 25281 6442 36769 35226 10154 9957 27329 9343 94 19710 7619 9437 7184 10273 9440 6979 435 308444 4854 2125 2461 844 1617 228 308216 196 1808 1192 306408 7106 172 299302 616
cat_boundaries=0 1 2 3 4
cat_threshold=7690 6150 456 1152
is_linear=0
shrinkage=0.02


Tree=6
num_leaves=61
num_cat=4
split_feature=15 15 15 28 15 15 15 39 15 44 39 7 15 39 2 39 7 34 30 39 41 15 16 30 35 30 7 15 39 30 34 44 15 34 6 16 28 16 35 30 42 28 30 0 34 39 16 47 11 7 1 1 15 20 21 1 37 3 15 11
split_gain=81369.3 23337.7 7810.22 7518.95 5611.41 2377.27 1199.62 1018.7 673.988 595.398 553.798 436.292 371.798 315.617 290.528 281.482 221.895 213.762 205.751 205.453 190.647 186.522 171.586 149.706 142.303 138.864 133.263 113.113 119.456 105.015 87.4038 70.8955 54.0808 51.9986 50.2174 41.9649 35.0469 32.0236 30.6505 25.2835 22.1098 18.302 16.0962 15.7781 13.1393 10.1933 10.1365 7.3986 6.01065 2.42037 2.50443 1.91872 1.32884 1.83447 0.85714 0.943869 0.85282 0.483998 0.464501 0.129103
threshold=6.5000000000000009 27.500000000000004 83.500000000000014 1.0000000180025095e-35 16.500000000000004 45.500000000000007 11.500000000000002 50.500000000000007 34.500000000000007 1.5000000000000002 28.500000000000004 12.16666666666667 21.500000000000004 1.5000000000000002 5.5000000000000009 5.5000000000000009 3.166666666666667 21.500000000000004 1.2043227318480949 1.5000000000000002 12.500000000000002 4.5000000000000009 0 1.1057533831275415 8.5000000000000018 1.0319381395300076 0.50000000000000011 21.500000000000004 15.500000000000002 1.0527428397863419 5.5000000000000009 2.5000000000000004 2.5000000000000004 5.5000000000000009 13.500000000000002 1 5.5000000000000009 2 1.0000000180025095e-35 1.0229903343765396 1.5000000000000002 5.5000000000000009 1.011055291771606 -0.048275337418738594 5.5000000000000009 1.5000000000000002 3 5.5000000000000009 0.408248290464643 0.50000000000000011 51.511519812249105 51.560083713205437 1.5000000000000002 1.0000000180025095e-35 1.0000000180025095e-35 51.558196356247748 1.5000000000000002 1.0000000180025095e-35 1.0000000180025095e-35 0.40824829046418465
decision_type=2 2 2 10 2 2 2 2 2 2 2 2 2 2 2 2 2 2 8 2 2 2 1 8 2 8 2 2 2 8 2 2 2 2 2 1 10 1 2 8 2 10 10 2 2 2 1 2 2 2 2 2 2 2 2 2 2 2 2 2
left_child=3 4 5 48 6 8 19 14 15 12 17 24 23 22 34 -3 -10 -7 -14 26 -13 32 -8 -6 -9 -16 -2 33 -29 -12 -15 -21 42 -11 -4 39 40 -38 41 43 -34 -37 46 -23 -41 -40 -5 -44 52 54 -51 -52 56 59 57 -56 58 -50 -1 -54
right_child=1 2 7 21 9 10 13 11 16 27 29 20 18 30 25 -17 -18 -19 -20 31 -22 35 -24 -25 -26 -27 -28 28 -30 -31 -32 -33 36 -35 -36 38 37 -39 45 44 -42 -43 47 -45 -46 -47 -48 -49 49 50 51 -53 53 -55 55 -57 -58 -59 -60 -61
leaf_value=-0.0060354858399751035 0.0046947594372961157 0.027891389382292468 0.087628882443127429 0.00053328767120939158 0.014540279102972642 0.050232410087906118 0.0072859662106841997 0.14110343591008387 0.037494371739300814 0.018431001943806209 0.10490937214758661 0.26550426547343914 0.019531219204141456 0.012590250656615462 0.080387550238519914 0.039263817792627928 0.048254939100001455 0.064935244101661821 0.02757785709923918 0.0087318085953063049 0.18645605833634085 0.0047159386009105906 0.011287623526543144 0.018761659574262873 0.20150023698806763 0.13853415312852874 0.0070492585958055578 0.027499825600482503 0.048510547912957377 0.075657438148822018 0.016080028825608488 0.015977858531390821 0.0033919184352775847 0.024418811027670389 0.050890394882722338 0.0039811907133789175 0.0031307768979796746 0.00090522638511020173 0.0049282108942667645 0.0054491461346147761 0.011872419780633581 0.0020191215457652954 0.0012069092876886372 0.0027657195180654528 0.0083427049652222661 0.0092507817741140173 -0.0010110868477963832 0.0053637394937309062 -0.0055055117380769947 -0.0052977088766713301 0.0049415716715157029 -0.0028385893503824872 -0.0047885013737920994 -0.00035549061863045939 -0.0023468870568919826 -0.0063451678951581313 -0.0023397701263427736 -0.0035573535699110763 -0.0056645042956930351 -0.0061418646463641414
leaf_weight=306388 15933 3984 46 2941 10941 974 5956 71 1760 862 108 26 6337 5796 20 1114 1358 666 1590 11804 23 4889 17008 4850 20 92 24251 2142 114 90 5688 566 3876 1774 22 2644 3572 9414 855 2838 127 6773 2308 2512 806 293 4006 185 237 31 32 21 59 38 111 30 25 65 1356 54
leaf_count=306388 15933 3984 46 2941 10941 974 5956 71 1760 862 108 26 6337 5796 20 1114 1358 666 1590 11804 23 4889 17008 4850 20 92 24251 2142 114 90 5688 566 3876 1774 22 2644 3572 9414 855 2838 127 6773 2308 2512 806 293 4006 185 237 31 32 21 59 38 111 30 25 65 1356 54
internal_value=5.7273e-08 0.0138161 0.0425521 -0.00488269 0.0112376 0.0394561 0.00871088 0.139823 0.0348563 0.0189213 0.0600177 0.180285 0.017611 0.0116116 0.108352 0.0303765 0.042181 0.0562032 0.0211452 0.00680951 0.2284 0.00247736 0.0102578 0.0158368 0.154377 0.128151 0.0061157 0.0252742 0.0285615 0.091613 0.0143187 0.00906336 0.00135046 0.0224607 0.0757429 0.00385555 0.00202485 0.00152051 0.00294335 0.00472118 0.00366097 0.00257001 0.000136763 0.00405401 0.00608916 0.00603145 -0.000357966 0.00151538 -0.00602898 -0.00389488 -0.000782251 0.00185887 -0.00603263 -0.00415689 -0.00448509 -0.00319759 -0.00603355 -0.00508621 -0.00603385 -0.00543524
internal_weight=482472 125986 10374 356486 115612 10054 87002 320 8216 28610 1838 140 23718 34448 180 5098 3118 1640 7927 52554 49 48039 22964 15791 91 112 40184 4892 2256 198 11484 12370 26429 2636 68 21610 16989 12986 10565 11045 4003 9417 9440 7401 3644 1148 6947 2493 308447 527 84 53 307920 151 443 141 307769 302 307744 113
internal_count=482472 125986 10374 356486 115612 10054 87002 320 8216 28610 1838 140 23718 34448 180 5098 3118 1640 7927 52554 49 48039 22964 15791 91 112 40184 4892 2256 198 11484 12370 26429 2636 68 21610 16989 12986 10565 11045 4003 9417 9440 7401 3644 1148 6947 2493 308447 527 84 53 307920 151 443 141 307769 302 307744 113
cat_boundaries=0 1 2 3 4
cat_threshold=112 7690 7168 7174
is_linear=0
shrinkage=0.02


Tree=7
num_leaves=59
num_cat=2
split_feature=15 15 15 28 15 15 39 15 15 31 7 39 31 2 39 31 39 39 44 15 39 15 39 46 19 7 47 31 5 19 42 46 46 46 44 29 0 2 33 47 14 25 0 39 39 44 0 26 11 46 14 20 18 7 37 46 11 4
split_gain=78147.3 22420.9 7727.52 7221.22 4946.42 2380.07 1070.61 917.49 678.827 525.772 517.241 517.219 367.111 331.905 281.036 270.677 254.239 216.161 190.562 187.275 180.591 179.132 165.302 160.898 153.156 146.867 136.745 117.078 112.198 101.929 77.8699 75.4854 61.5701 54.4997 52.5249 38.5596 34.0774 27.7365 23.4467 48.5982 23.2817 20.4755 18.7451 14.8837 14.8529 12.8701 11.4735 9.41809 5.77262 4.71565 1.27622 1.76182 1.16097 1.21024 0.819049 0.696874 0.12399 0.0719512
threshold=6.5000000000000009 26.500000000000004 76.500000000000014 1.0000000180025095e-35 14.500000000000002 40.500000000000007 50.500000000000007 19.500000000000004 10.500000000000002 1.1194552009056318 12.16666666666667 5.5000000000000009 0.81710474074311479 5.5000000000000009 28.500000000000004 0.81710474074311479 2.5000000000000004 1.5000000000000002 3.5000000000000004 160.50000000000003 4.5000000000000009 4.5000000000000009 1.5000000000000002 5.5000000000000009 -0.24999999999999994 2.8333333333333335 25.500000000000004 1.0000000180025095e-35 8.5000000000000018 1.0000000180025095e-35 1.5000000000000002 6.5000000000000009 3.5000000000000004 11.500000000000002 1.0000000180025095e-35 1.7715000000000003 0.021031274778171554 1.0000000180025095e-35 1.0821404213347046 3.5000000000000004 0.38924947208068267 0 -0.027553033837689096 1.0000000180025095e-35 2.5000000000000004 1.0000000180025095e-35 -0.043577365729344598 1 0.408248290464643 2.5000000000000004 0.38924947207955457 1.0000000180025095e-35 1.0000000180025095e-35 0.50000000000000011 1.5000000000000002 1.0000000180025095e-35 0.40824829046418465 1.0000000180025095e-35
decision_type=2 2 2 10 2 2 2 2 2 8 2 2 8 2 2 8 2 2 2 2 2 2 2 2 2 2 2 8 2 2 2 2 2 2 2 8 2 2 10 2 2 9 2 2 2 2 2 9 2 2 2 2 2 2 2 2 2 2
left_child=3 4 5 48 8 11 13 16 22 18 26 15 20 33 -11 -3 24 27 -7 -12 -9 32 29 -14 -6 -13 -8 -10 -15 -2 -18 -19 36 -4 -24 37 40 42 39 -34 -5 -38 -23 46 -40 -39 -37 -45 50 52 54 56 53 -50 55 -1 -52 -54
right_child=1 2 6 21 7 9 10 12 17 14 19 25 23 28 -16 -17 30 31 -20 -21 -22 35 34 -25 -26 -27 -28 -29 -30 -31 -32 -33 38 -35 -36 43 41 45 44 -41 -42 -43 -44 47 -46 -47 -48 -49 49 -51 51 -53 57 -55 -56 -57 -58 -59
leaf_value=-0.0059178406482677951 0.0045070190146729036 0.024784889415284173 0.058030295340965196 0.0001562206651313342 0.010973610527890578 0.0340439441275956 0.10412953107953073 0.017312161575085569 0.0073026735347374331 0.056728866183435783 0.18853794927950257 0.036062521792851486 0.021579892311039513 0.10296242702053859 0.083483378357883817 0.033098629169632195 0.016818275493390364 0.011453737856648856 0.052819766441365615 0.26714743679220027 0.025191538891211833 0.0031377674597761313 0.0077127085373519004 0.028817483591099417 0.014660424444420502 0.047087820468539938 0.15796515511227893 0.010241491144420916 0.13972732234692228 0.0067074352043995245 0.022783626158129087 0.015328688975562037 0.0053709045516980155 0.08849461385352618 0.011118373645560465 0.0049027281666376502 -0.0016930708128560083 0.0040467617143221659 0.0025532574145095857 0.032457931730896235 0.0019081866961057333 0.00059984253299973534 0.0012055517512245114 0.0032810329766593473 0.00636171258090575 0.0075047521030201635 0.0025041982540745795 0.0062089612904925023 -0.0041465738533358826 0.0043244076216662373 -0.0046927312168024357 -0.00034838075700559116 -0.0060342360030521047 -0.00092257586392489356 -0.0022929745197296141 -0.0057190857640831818 -0.0060190272883132653 -0.0049433449391395818
leaf_weight=300518 17033 3117 48 4510 7823 597 25 8878 9356 1703 27 1155 2608 64 173 3149 4285 6978 339 22 1339 6361 7415 2323 10633 831 77 12897 69 16654 1100 2825 154 46 2397 2075 2848 4506 5755 32 9271 3418 2935 601 441 476 1296 3360 304 27 59 38 110 55 25 7226 54 31
leaf_count=300518 17033 3117 48 4510 7823 597 25 8878 9356 1703 27 1155 2608 64 173 3149 4285 6978 339 22 1339 6361 7415 2323 10633 831 77 12897 69 16654 1100 2825 154 46 2397 2075 2848 4506 5755 32 9271 3418 2935 601 441 476 1296 3360 304 27 59 38 110 55 25 7226 54 31
internal_value=6.55658e-08 0.0135398 0.0402349 -0.00478503 0.0108732 0.0371969 0.129157 0.0166588 0.00788763 0.0530875 0.170426 0.0317819 0.0205078 0.101705 0.0591961 0.028963 0.0142133 0.010096 0.0408442 0.223832 0.0183448 0.00242782 0.00626024 0.0249895 0.0130977 0.0406758 0.14477 0.0090059 0.122036 0.00559485 0.0180368 0.0125704 0.00132347 0.0729384 0.00854469 0.00377844 0.000778811 0.00317304 0.00303436 0.010031 0.00133483 -0.000444069 0.00252771 0.00495738 0.00282432 0.00437715 0.0039806 0.00578867 -0.0059084 -0.00381698 -0.00591198 -0.00407376 -0.00425662 -0.00365265 -0.00591288 -0.00591317 -0.00532654 -0.00579439
internal_weight=482472 125986 11442 356486 114544 11064 378 38989 75555 2812 151 8252 15148 227 1876 6266 23841 32056 936 49 10217 48039 43499 4931 18456 1986 102 22253 133 33687 5385 9803 26429 94 9812 21610 20047 14278 6382 186 13781 6266 9296 7332 6196 4982 3371 3961 308447 527 307920 151 500 359 307769 307744 113 141
internal_count=482472 125986 11442 356486 114544 11064 378 38989 75555 2812 151 8252 15148 227 1876 6266 23841 32056 936 49 10217 48039 43499 4931 18456 1986 102 22253 133 33687 5385 9803 26429 94 9812 21610 20047 14278 6382 186 13781 6266 9296 7332 6196 4982 3371 3961 308447 527 307920 151 500 359 307769 307744 113 141
cat_boundaries=0 1 2
cat_threshold=1792 66
is_linear=0
shrinkage=0.02


Tree=8
num_leaves=60
num_cat=5
split_feature=13 13 13 28 13 13 13 9 13 31 44 44 31 35 44 13 31 9 9 47 9 16 29 13 16 44 35 41 34 32 34 35 31 13 16 28 16 35 29 28 29 45 0 34 16 36 8 47 18 9 13 11 0 0 29 37 37 0 45
split_gain=75052.7 21538.9 7207.18 6935.32 5187.17 2205.39 1107.62 825.885 628.996 561.568 438.193 334.177 317.342 299.913 262.361 242.619 235.479 234.486 229.075 210.721 195.518 183.508 180.307 172.052 126.744 114.737 113.589 112.565 110.799 89.6808 74.7763 67.9447 62.8376 50.6584 40.2606 33.1624 30.7323 29.3015 23.4574 17.4558 15.238 15.2347 14.7773 12.5819 9.73885 8.09534 7.99775 7.06487 1.75633 1.70502 1.44934 1.38469 0.882921 0.739659 0.595087 0.323939 0.170807 0.0989539 0.0321951
threshold=0.54166666666666685 2.291666666666667 6.9583333333333348 1.0000000180025095e-35 1.3750000000000002 3.7916666666666674 0.95833333333333337 36.500000000000007 2.8750000000000004 0.82907283605918103 22.500000000000004 1.0000000180025095e-35 0.67946324365849708 8.5000000000000018 1.0000000180025095e-35 1.8750000000000002 0.85348513309026219 8.5000000000000018 21.500000000000004 110.50000000000001 1.5000000000000002 0 1.8875000000000002 0.37500000000000006 1 2.5000000000000004 1.0000000180025095e-35 1.5000000000000002 6.5000000000000009 3.6702899021739608 4.5000000000000009 6.5000000000000009 0.57175533546371315 0.20833333333333334 2 5.5000000000000009 3 1.0000000180025095e-35 1.7815000000000001 5.5000000000000009 1.7485000000000002 2.5000000000000004 -0.048275337418738594 5.5000000000000009 4 2.5000000000000004 0.5773502691893837 5.5000000000000009 1.0000000180025095e-35 1.5000000000000002 1.0000000180025095e-35 0.81649658092788779 -0.35041083712923721 1.0000000180025095e-35 1.4385000000000001 1.5000000000000002 1.0000000180025095e-35 -0.075477139994609324 1.0000000180025095e-35
decision_type=2 2 2 10 2 2 2 2 2 8 2 2 8 2 2 2 8 2 2 2 2 1 8 2 1 2 2 2 2 8 2 2 8 2 1 10 1 2 8 10 10 2 2 2 1 2 2 2 2 2 2 2 2 2 10 2 2 2 2
left_child=3 4 5 46 6 8 20 13 17 11 12 24 -7 18 21 28 -10 -3 -4 31 30 -8 -15 33 -6 -17 -22 -13 -11 -12 -2 -9 -16 40 38 41 -37 39 42 -36 44 -35 -25 -40 -5 -39 50 -42 49 54 55 -51 58 -54 -48 56 -1 -50 -52
right_child=1 2 7 23 9 10 14 19 16 15 29 27 -14 22 32 25 -18 -19 -20 -21 26 -23 -24 34 -26 -27 -28 -29 -30 -31 -32 -33 -34 35 37 36 -38 45 43 -41 47 -43 -44 -45 -46 -47 48 -49 57 51 52 -53 53 -55 -56 -57 -58 -59 -60
leaf_value=-0.0057970653574963551 0.0040982059508966476 0.0262078257631253 0.083806281180663425 0.00051460535838942492 0.012007515687307031 0.033842834870653801 0.0078673401879377873 0.15038989002505937 0.033221172500378517 0.017255198852488333 0.11719279278727139 0.017572870713792259 0.058244303553598824 0.12341005851825079 0.013119949664982752 0.025452979857249289 0.044670573170994751 0.035411003151356368 0.12627632219895074 0.25008006232125418 0.0069823684963832115 0.011412641119672115 0.20015656299591064 0.0045485788810518922 0.016148730280872124 0.035981989289862085 0.010213000356748684 0.022662810446161991 0.023190136379457341 0.08092969652711568 0.0066450359173053069 0.20030285787582397 0.016940119723913908 0.0030312999118033402 0.0038229142131675571 0.0030365096273068143 0.00085644895561886973 0.0054596516492704285 0.005241979168198998 0.0019067407297662137 0.001162261959275092 0.0065265942956895043 0.0026612266084286057 0.0080734890595854959 -0.00099919443438015133 0.01346303326903649 1.0741487626106509e-05 0.0052242574401803925 -0.0043744173375042999 0.0060246586501598353 -0.0058725814108510277 -0.00064451273643609253 -0.004501045906258703 -0.005515909183816791 -0.0031764321587979794 -0.0032510821521282195 -0.0053939402754686226 -0.006166842345680509 -0.0051253613581260047
leaf_weight=305967 13118 3472 91 2941 5130 251 9135 24 1123 2707 34 3652 1415 24 5272 2454 1995 1626 115 21 27140 17483 25 4889 8502 498 5185 3316 2351 138 7111 20 2558 3419 2644 3572 9414 1095 2838 6773 2308 584 2512 806 4006 53 31 185 22 20 592 33 711 482 96 20 421 28 24
leaf_count=305967 13118 3472 91 2941 5130 251 9135 24 1123 2707 34 3652 1415 24 5272 2454 1995 1626 115 21 27140 17483 25 4889 8502 498 5185 3316 2351 138 7111 20 2558 3419 2644 3572 9414 1095 2838 6773 2308 584 2512 806 4006 53 31 185 22 20 592 33 711 482 96 20 421 28 24
internal_value=6.74459e-08 0.013269 0.0408754 -0.00468933 0.0107919 0.0379013 0.00836255 0.134316 0.0334709 0.0181794 0.0577057 0.0164322 0.054568 0.118094 0.0111498 0.022673 0.0405469 0.0291432 0.107515 0.197955 0.00653554 0.0102032 0.162566 0.0023793 0.014611 0.0272292 0.00750057 0.0199951 0.0200138 0.088098 0.00499348 0.173078 0.014368 0.001297 0.00370296 0.0019497 0.00145911 0.00280983 0.00455061 0.00244474 0.000122333 0.00354123 0.00390799 0.00586827 -0.000359028 0.00582915 -0.00579023 0.00146369 -0.00206213 -0.001141 -0.00579301 0.00187216 -0.00522857 -0.00491107 -0.00239846 -0.00579635 -0.00579651 -0.00537818 -0.00584347
internal_weight=482472 125986 10374 356486 115612 10054 87002 320 8216 28610 1838 20600 1666 255 34448 8010 3118 5098 206 65 52554 26618 49 48039 13632 2952 32325 6968 5058 172 20229 44 7830 26429 21610 16989 12986 10565 11045 9417 9440 4003 7401 3644 6947 1148 308447 2493 230 180 308217 53 1809 1193 127 306408 306388 50 616
internal_count=482472 125986 10374 356486 115612 10054 87002 320 8216 28610 1838 20600 1666 255 34448 8010 3118 5098 206 65 52554 26618 49 48039 13632 2952 32325 6968 5058 172 20229 44 7830 26429 21610 16989 12986 10565 11045 9417 9440 4003 7401 3644 6947 1148 308447 2493 230 180 308217 53 1809 1193 127 306408 306388 50 616
cat_boundaries=0 1 2 3 4 5
cat_threshold=240 240 7690 7168 7174
is_linear=0
shrinkage=0.02


Tree=9
num_leaves=59
num_cat=3
split_feature=13 13 13 28 13 13 39 13 13 39 31 7 31 2 39 31 35 39 19 43 0 44 39 13 39 8 46 39 16 30 19 46 34 46 46 19 46 32 43 16 35 0 0 16 30 30 39 8 46 13 0 0 19 46 39 0 37 19
split_gain=72081.2 20691.5 7134.52 6660.7 4572 2197.23 1000.38 854.608 628.323 491.687 490.437 475.474 337.48 310.811 262.413 251.234 244.681 205.56 190.672 188.77 185.618 180.733 170.706 165.822 157.998 154.777 152.743 137.771 126.024 106.01 97.8292 71.9256 61.6573 60.378 51.0291 32.7241 30.3048 28.3156 23.2192 21.5168 19.3498 17.6527 17.3869 16.1503 15.8349 14.2827 10.0293 7.68104 3.8594 1.39194 1.19008 0.847958 0.846468 0.546517 0.765496 0.447338 0.102046 0.0183573
threshold=0.54166666666666685 2.2083333333333335 6.3750000000000009 1.0000000180025095e-35 1.2083333333333337 3.3750000000000004 50.500000000000007 1.6250000000000002 0.87500000000000011 5.5000000000000009 1.1194552009056318 12.16666666666667 0.81710474074311479 5.5000000000000009 28.500000000000004 0.81710474074311479 1.0000000180025095e-35 1.5000000000000002 1.0000000180025095e-35 27.500000000000004 -0.13374387925288847 3.5000000000000004 4.5000000000000009 0.29166666666666669 1.5000000000000002 2.0816659994661246 5.5000000000000009 32.500000000000007 0 1.0846823688533405 1.0000000180025095e-35 6.5000000000000009 7.5000000000000009 2.5000000000000004 11.500000000000002 -0.24999999999999994 3.5000000000000004 0.64215766625326942 1.5000000000000002 1 1.5000000000000002 -0.027553033837689096 -0.005043130857966799 2 1.1318858524363298 1.2959592755787785 2.5000000000000004 0.5773502691893837 1.5000000000000002 1.0000000180025095e-35 0.067123928805252059 -0.35041083712923721 0.6830127018922193 1.0000000180025095e-35 1.0000000180025095e-35 -0.24788847224435587 1.0000000180025095e-35 -0.9330127018922193
decision_type=2 2 2 10 2 2 2 2 2 2 8 2 8 2 2 8 2 2 2 2 2 2 2 2 2 2 2 2 1 8 2 2 2 2 2 2 2 8 2 1 2 2 2 1 10 8 2 2 2 2 2 2 2 2 2 2 2 2
left_child=3 4 5 47 8 9 13 16 24 15 21 19 22 34 -12 -3 18 28 -6 -8 -13 -7 -9 36 30 -15 -14 -11 -10 -18 -2 -19 -26 35 -4 40 39 43 -39 44 -25 -37 -41 -35 -5 46 -38 49 50 53 55 57 -53 56 -55 -49 -1 -51
right_child=1 2 6 23 7 10 11 12 17 27 14 20 26 25 -16 -17 29 31 -20 -21 -22 -23 -24 33 32 -27 -28 -29 -30 -31 -32 -33 -34 37 -36 41 45 38 -40 42 -42 -43 -44 -45 -46 -47 -48 48 -50 51 -52 52 -54 54 -56 -57 -58 -59
leaf_value=-0.0056849494284685054 0.0042897218860183228 0.02375292416428923 0.05529135485900042 0.0010379215514863549 0.010236358148798381 0.032550218676901742 0.12223606910607586 0.016641235102818178 0.0064987651324722364 0.038423963007766279 0.054513180065141026 0.25332716655731202 0.020694031886573587 0.1421417652514943 0.080366047304338967 0.031762496271410534 0.015100814093596268 0.011019238246976901 0.014433540174222843 0.18255254120662293 0.17545854022105534 0.050835393406560646 0.024301932540021786 0.0011523149827773493 0.0073890598435883761 0.098543878363347381 0.027745818805704845 0.07503617882018998 0.0097211429404563642 0.020473571983845518 0.0064454325973465048 0.014801717607742917 0.011195360893641947 0.0022405565605121661 0.084769710069117349 0.0036823431864793977 0.0019260940499499827 0.0049865671843412366 0.010452514105891606 0.00032240655328190712 0.0088864602419463073 0.0019062887353258628 -0.0016710186036869013 0.0040788505449965377 0.0073444924921524241 0.015221681805217968 0.0060876207942924185 -0.00097273368727077137 0.0044235365651547906 -0.0053552036017787694 0.0011125696698824565 -0.0051388374589005923 -0.0039422238716712368 -0.0055343890517800731 -0.0039298950098762822 -0.0040240653133706049 -0.0053565639792142886 -0.0057586955940071658
leaf_weight=298923 17033 3117 48 5502 8387 597 73 8878 7563 1944 1703 25 2608 57 173 3149 4264 6978 8949 29 24 339 1339 6553 7620 76 2323 42 14690 2241 16654 2825 2192 2948 46 6889 3513 4884 332 4742 132 3316 2774 6008 164 34 248 22 32 49 24 868 325 6985 121 152 379 567
leaf_count=298923 17033 3117 48 5502 8387 597 73 8878 7563 1944 1703 25 2608 57 173 3149 4264 6978 8949 29 24 339 1339 6553 7620 76 2323 42 14690 2241 16654 2825 2192 2948 46 6889 3513 4884 332 4742 132 3316 2774 6008 164 34 248 22 32 49 24 868 325 6985 121 152 379 567
internal_value=8.74513e-08 0.0130037 0.0386486 -0.00459554 0.010442 0.0357294 0.124091 0.0160044 0.00757166 0.0305266 0.0509975 0.163983 0.0197191 0.0975542 0.0568973 0.0277782 0.0136441 0.00969625 0.012403 0.139385 0.215187 0.0391727 0.0176452 0.00233173 0.00600598 0.117229 0.0240161 0.0391982 0.00863326 0.0169518 0.00535545 0.0121093 0.00823939 0.00320043 0.0697169 0.00239272 0.000742312 0.00416305 0.00533448 0.000288923 0.00130503 0.00310523 -0.000412776 0.0034808 0.00121831 0.00231716 0.0022005 -0.00567443 -0.00202088 -0.00567715 -0.00306241 -0.005124 -0.00481285 -0.00568042 -0.00550707 -0.00363826 -0.00568453 -0.0057266
internal_weight=482472 125986 11442 356486 114544 11064 378 38989 75555 8252 2812 151 15148 227 1876 6266 23841 32056 17336 102 49 936 10217 48039 43499 133 4931 1986 22253 6505 33687 9803 9812 31062 94 16890 16977 14172 5216 13182 6685 10205 7516 8956 5666 3795 3761 308447 230 308217 198 1809 1193 306408 7106 174 299302 616
internal_count=482472 125986 11442 356486 114544 11064 378 38989 75555 8252 2812 151 15148 227 1876 6266 23841 32056 17336 102 49 936 10217 48039 43499 133 4931 1986 22253 6505 33687 9803 9812 31062 94 16890 16977 14172 5216 13182 6685 10205 7516 8956 5666 3795 3761 308447 230 308217 198 1809 1193 306408 7106 174 299302 616
cat_boundaries=0 1 2 3
cat_threshold=240 7178 432
is_linear=0
shrinkage=0.02


Tree=10
num_leaves=62
num_cat=3
split_feature=10 10 10 10 28 10 39 10 39 39 7 39 39 29 29 39 31 32 32 2 39 19 44 0 5 46 44 31 29 45 10 46 44 0 45 33 32 24 10 29 26 11 29 39 26 19 29 8 0 46 39 29 0 19 8 0 45 29 29 10 1
split_gain=67714.3 20329 6955.45 5252.06 2830.31 2086.49 1419.6 1104.15 852.072 656.288 543.126 488.512 393.72 329.823 325.584 254.031 253.655 210.206 201.44 234.915 190.398 182.458 162.996 158.341 150.06 143.622 141.488 133.689 126.106 95.351 75.1629 74.594 66.0499 29.1474 29.9884 22.7023 19.5642 16.0011 14.9212 12.0465 13.1068 11.923 11.4636 9.3126 9.18006 8.46515 7.33046 3.04018 2.88247 0.912243 0.984843 0.835534 0.592508 0.568031 1.65554 0.410804 0.186635 0.170398 0.108296 0.093338 0.0305424
threshold=0.24999999999999997 2.2500000000000004 5.916666666666667 1.2500000000000002 1.0000000180025095e-35 3.416666666666667 36.500000000000007 0.75000000000000011 2.5000000000000004 3.5000000000000004 12.16666666666667 4.5000000000000009 1.5000000000000002 1.9995000000000003 2.0215000000000001 1.5000000000000002 1.1080332787854019 1.8667165108200563 4.3095006550778674 5.5000000000000009 28.500000000000004 -0.24999999999999994 8.5000000000000018 -0.13374387925288847 8.5000000000000018 3.5000000000000004 1.0000000180025095e-35 0.66588981369274325 1.7675000000000003 4.5000000000000009 1.5833333333333337 3.5000000000000004 1.0000000180025095e-35 -0.0089226474457987977 1.0000000180025095e-35 6.2723237385578665 0.33383409376107492 0 1.0000000180025095e-35 1.8925000000000003 1 0.40824829046434469 1.6615000000000002 2.5000000000000004 2 1.0000000180025095e-35 1.4105000000000001 0.5773502691893837 -0.027553033837689096 1.0000000180025095e-35 1.0000000180025095e-35 1.4055000000000002 -0.37846827923627679 0.6830127018922193 0.57735026918944687 -0.012931823625689048 1.0000000180025095e-35 1.5965000000000003 1.7955000000000003 1.0000000180025095e-35 51.537533629545088
decision_type=2 2 2 2 10 2 2 2 2 2 2 2 2 8 8 2 8 8 8 2 2 2 2 2 2 2 2 8 8 2 2 2 2 2 2 10 8 9 2 8 9 2 8 2 9 2 10 2 2 2 2 8 2 2 2 2 2 10 10 2 2
left_child=4 3 5 7 47 9 18 15 13 14 24 16 25 21 -3 28 -7 30 35 -20 -13 -5 -11 -12 -8 -9 -14 -15 -2 -19 -10 33 -17 34 38 -4 41 45 -6 43 -41 44 -36 -38 -33 -35 -39 49 -43 56 52 -52 -51 55 60 57 59 -49 -58 -1 -55
right_child=1 2 6 8 31 11 10 12 17 22 23 20 26 27 -16 32 -18 29 19 -21 -22 -23 -24 -25 -26 -27 -28 -29 -30 -31 -32 36 -34 37 42 -37 39 46 -40 40 -42 48 -44 -45 -46 -47 -48 53 -50 50 51 -53 -54 54 -56 -57 58 -59 -60 -61 -62
leaf_value=-0.0055705102693960366 0.003509365748268327 0.019414833850806897 0.035349095307967884 0.0099957784835053159 -0.0011728159859641766 0.027733942374528163 0.11095117059350013 0.0067620549712148013 0.015636391938491669 0.033243166352526748 0.23899504411679048 0.052837427754412032 0.010516685658156012 0.01550476231190063 0.029102575473736115 0.0066546383039995374 0.045675065945299194 0.022826938180522852 0.064415232304166611 0.10565692426331008 0.07449332391672038 0.014074276850869736 0.04538014126843528 0.17102419914870429 0.1504661917042088 0.0095575344525881296 0.014886101211938408 0.021252177265525803 0.005649845844688489 0.030528280620391552 0.020480777730799128 0.003229340190673276 0.010036831652222116 -0.0018043738342593985 0.0017207789167411234 0.061949916297481179 0.003530726104739429 -0.001561189282212273 0.001222843869552845 0.0031548313147451252 0.0086692032687351872 0.018454880923032761 0.0033890153660109373 0.00795264063839707 0.00092212878831077314 4.8086506756519472e-05 0.001784381654201136 -0.0029813199639320376 0.0079640292037617081 -0.0055744411990429742 -4.7094935462588353e-05 -0.0043443256616592409 -0.0052105267262293866 -0.0032457536160945895 0.0028459664682547255 -0.0013321159283320109 -0.0054332149913234101 -0.0051785761490464209 -0.0049260230994585793 -0.0053522787324648173 -0.0043510580360889431
leaf_weight=299263 30600 3008 33 7583 1659 506 80 18597 2356 2634 26 1329 8797 4961 2576 9418 836 3181 94 134 185 10412 532 29 74 12157 4471 2403 17197 806 2808 1593 3060 1964 3783 21 2153 307 2787 316 517 20 2919 209 1259 1983 1786 20 22 3305 21 131 3903 20 24 21 465 48 264 786 20
leaf_count=299263 30600 3008 33 7583 1659 506 80 18597 2356 2634 26 1329 8797 4961 2576 9418 836 3181 94 134 185 10412 532 29 74 12157 4471 2403 17197 806 2808 1593 3060 1964 3783 21 2153 307 2787 316 517 20 2919 209 1259 1983 1786 20 22 3305 21 131 3903 20 24 21 465 48 264 786 20
internal_value=9.4958e-08 0.0111064 0.0359723 0.00893935 -0.00505464 0.0328531 0.109704 0.00670153 0.0157026 0.0280083 0.149207 0.0476961 0.00910944 0.0138147 0.023884 0.0049429 0.0389104 0.0209341 0.0804274 0.0886538 0.0554836 0.0123556 0.0352826 0.203156 0.129939 0.0078671 0.0119891 0.0173802 0.00427949 0.0243838 0.0182706 0.00167014 0.00748406 0.000996264 0.00160249 0.0456939 0.00357235 -0.000122651 0.000328917 0.0046513 0.00671926 0.00238117 0.00244737 0.003922 0.00222539 -0.000871477 0.0012875 -0.00556238 0.0129597 -0.00556378 -0.00534379 -0.00375063 -0.00537739 -0.00274383 -0.00130677 -0.00377722 -0.00556916 -0.00453232 -0.00524954 -0.00556994 -0.00379841
internal_weight=482472 150904 12097 138807 331568 11606 491 104297 34510 8750 209 2856 44022 25359 5584 60275 1342 9151 282 228 1514 17995 3166 55 154 30754 13268 7364 47797 3987 5164 23277 12478 17188 11148 54 6089 6040 4446 3195 833 2894 6702 2362 2852 3947 2093 308291 42 308138 7360 152 7208 153 64 89 300778 68 729 300049 40
internal_count=482472 150904 12097 138807 331568 11606 491 104297 34510 8750 209 2856 44022 25359 5584 60275 1342 9151 282 228 1514 17995 3166 55 154 30754 13268 7364 47797 3987 5164 23277 12478 17188 11148 54 6089 6040 4446 3195 833 2894 6702 2362 2852 3947 2093 308291 42 308138 7360 152 7208 153 64 89 300778 68 729 300049 40
cat_boundaries=0 1 2 3
cat_threshold=1864 900 412
is_linear=0
shrinkage=0.02


Tree=11
num_leaves=60
num_cat=5
split_feature=13 13 28 13 13 13 39 13 7 46 39 0 39 31 13 18 13 16 31 39 1 46 33 16 31 39 31 46 18 34 42 44 46 29 16 46 28 29 0 39 7 45 34 42 33 25 16 31 11 46 13 20 18 31 46 13 13 10 31
split_gain=66632.5 18157.2 8072.58 6406.35 3968.5 1972.21 851.526 701.814 572.37 529.797 463.115 360.138 308.416 270.631 259.313 250.956 239.791 219.607 214.977 211.34 203.499 200.749 159.868 153.371 145.838 143.62 117.561 111.45 93.5752 91.4214 86.7605 82.3555 78.8877 78.5373 67.9436 54.5981 50.4406 37.2472 30.8652 29.4679 27.2509 23.9716 22.3104 22.1816 51.4191 18.744 16.6129 11.3565 4.68802 4.32975 1.17445 1.68111 1.07537 1.02542 0.70091 0.90128 0.140675 0.120516 0.0693367
threshold=0.62500000000000011 2.291666666666667 1.0000000180025095e-35 6.9583333333333348 1.3750000000000002 3.7916666666666674 50.500000000000007 1.0416666666666667 2.8333333333333335 5.5000000000000009 30.500000000000004 -0.1370710067429565 4.5000000000000009 0.67946324365849708 1.7916666666666667 0.25000000000000006 0.37500000000000006 0 1.0000000180025095e-35 5.5000000000000009 51.52105903134202 5.5000000000000009 4.4117448202839027 1 0.87393493356796126 2.5000000000000004 0.49224952337936873 11.500000000000002 0.25000000000000006 6.5000000000000009 1.5000000000000002 1.0000000180025095e-35 4.5000000000000009 1.7015000000000002 2 3.5000000000000004 5.5000000000000009 1.7755000000000003 0.021031274778171554 1.0000000180025095e-35 0.50000000000000011 1.0000000180025095e-35 3.5000000000000004 1.5000000000000002 1.7880900785743297 3 4 0.42274362489031542 0.408248290464643 2.5000000000000004 0.12499999999999996 1.0000000180025095e-35 1.0000000180025095e-35 1.0000000180025095e-35 1.0000000180025095e-35 1.0000000180025095e-35 1.0000000180025095e-35 1.0000000180025095e-35 0.38887810142194951
decision_type=2 2 10 2 2 2 2 2 2 2 2 2 2 8 2 2 2 1 8 2 2 2 8 1 8 2 8 2 2 2 2 2 2 8 1 2 10 8 2 2 2 2 2 2 10 9 1 10 2 2 2 2 2 10 2 2 2 2 10
left_child=2 4 48 5 7 8 20 18 19 17 13 15 -10 -7 29 -8 35 31 32 -3 27 23 -13 -9 -16 -20 -19 -5 -22 -11 -23 -6 -2 -12 36 38 47 40 41 -38 -36 -4 -39 46 -45 -40 -37 -18 50 52 54 57 53 -50 56 -56 -1 -52 -54
right_child=1 3 16 6 9 10 11 21 12 14 33 22 -14 -15 24 -17 34 26 25 -21 28 30 -24 -25 -26 -27 -28 -29 -30 -31 -32 -33 -34 -35 37 43 39 42 45 -41 -42 -43 -44 44 -46 -47 -48 -49 49 -51 51 -53 58 -55 55 -57 -58 -59 -60
leaf_value=-0.0054594470301452449 0.0049199117647167352 0.024872425662324612 0.00020666669520140742 0.064017082810149353 0.010977623875282169 0.03191304509374631 0.16741404016812642 0.0068068087053598228 0.032933243137102337 0.015221433706344855 0.098575275145297833 0.093143568209239427 0.045356998284779751 0.05453474044523339 0.021324615774776009 0.26333961176872256 0.0041698248386721334 0.014808957404749079 0.0077016634306471266 0.034592253192816502 0.15999936560789743 0.012955706192019191 0.15557534869511921 0.01102287575483254 0.028590728227972654 0.012171378643377582 0.019140045766875252 0.10158282906693572 0.10661135842060221 0.01996099615621481 0.019081963124912456 0.015913199284509096 0.0074735496914351378 0.07232351503267731 0.0030162082164155207 0.0014238961228633668 0.00091018243343782171 0.0047077021239198677 -0.0016858061426498409 0.0031398471262007771 0.0048959386999653035 0.0019010765181316925 0.0070183387769213136 0.039749820768833162 0.0059744937986624044 0.00050819024095874682 0.0035248804106448369 0.0075338846234559486 -0.0041435665873343066 0.0042360877990722653 -0.0042885037903058329 -5.0569662922307065e-05 -0.0057066352050238788 -0.0018579902320072571 -0.0052898198109494442 -0.0036219211464578456 -0.0052450334681448073 -0.0055960841532106754 -0.0046477888710796831
leaf_weight=299302 17156 3722 5685 59 5410 249 24 4770 1972 2801 86 21 1344 1406 2874 20 3524 5198 22400 1178 24 6258 75 13982 1795 3299 4842 68 29 3887 1085 1803 6740 97 6863 2793 5470 3895 2848 4185 5604 8096 2928 20 183 3418 3386 453 243 27 59 38 109 116 7106 132 1229 54 32
leaf_count=299302 17156 3722 5685 59 5410 249 24 4770 1972 2801 86 21 1344 1406 2874 20 3524 5198 22400 1178 24 6258 75 13982 1795 3299 4842 68 29 3887 1085 1803 6740 97 6863 2793 5470 3895 2848 4185 5604 8096 2928 20 183 3418 3386 453 243 27 59 38 109 116 7106 132 1229 54 32
internal_value=9.95658e-08 0.0133111 -0.00415006 0.0385453 0.0108012 0.0357414 0.126641 0.00840267 0.0315517 0.0171466 0.0544696 0.163635 0.0379687 0.0511312 0.0205011 0.211017 0.00260467 0.0149385 0.00700571 0.0272092 0.0978686 0.0110576 0.141918 0.00995993 0.0241181 0.00827544 0.0168809 0.084131 0.130787 0.017976 0.0138609 0.0121944 0.00564018 0.0846604 0.00374368 0.00118582 0.0026555 0.00450898 0.000672922 0.00187664 0.00386116 0.00120209 0.00569928 0.00279693 0.00930211 -0.000490897 0.00258321 0.00455301 -0.0054498 -0.00356507 -0.00545302 -0.00368962 -0.00398633 -0.00340505 -0.00545389 -0.0052594 -0.00545857 -0.00491337 -0.00546633
internal_weight=482472 114674 367798 10374 104300 10054 320 75690 8216 28610 1838 140 3316 1655 11357 44 59351 17253 49595 4900 180 26095 96 18752 4669 25699 10040 127 53 6688 7343 7213 23896 183 32922 26429 13632 19290 20047 9655 12467 13781 6823 6382 203 6266 6179 3977 308447 527 307920 151 500 359 307769 7238 300531 113 141
internal_count=482472 114674 367798 10374 104300 10054 320 75690 8216 28610 1838 140 3316 1655 11357 44 59351 17253 49595 4900 180 26095 96 18752 4669 25699 10040 127 53 6688 7343 7213 23896 183 32922 26429 13632 19290 20047 9655 12467 13781 6823 6382 203 6266 6179 3977 308447 527 307920 151 500 359 307769 7238 300531 113 141
cat_boundaries=0 1 2 3 4 5
cat_threshold=496 112 496 1792 976
is_linear=0
shrinkage=0.02


Tree=12
num_leaves=62
num_cat=3
split_feature=13 13 14 13 13 13 39 13 13 39 39 43 39 2 2 46 9 13 39 46 46 17 9 39 29 9 19 41 29 42 46 19 33 46 41 45 33 39 0 39 29 45 33 47 45 24 35 39 0 26 13 19 45 8 47 19 46 46 13 3 13
split_gain=63994 17440.9 7705.86 5980.18 4136.25 1711.78 817.805 674.068 591.885 499.097 445.353 349.283 274.749 266.67 239.396 219.535 219.36 218.755 197.777 192.78 182.457 147.288 136.536 129.041 126.994 124.483 122.099 95.9978 91.9323 83.3248 68.1535 65.7253 58.5849 50.5053 50.2006 47.1523 42.3872 36.9278 27.8863 24.6605 22.7399 21.5362 20.6887 47.1803 19.645 16.8712 13.7973 12.3863 9.38495 5.17904 6.84671 3.62474 3.29497 3.00236 1.98644 0.831135 0.983666 0.750223 0.912326 0.405678 0.212556
threshold=0.62500000000000011 2.3750000000000004 0.28867513459332811 6.9583333333333348 1.3750000000000002 3.7916666666666674 50.500000000000007 1.0416666666666667 1.8750000000000002 5.5000000000000009 28.500000000000004 61.500000000000007 2.5000000000000004 2.5000000000000004 5.5000000000000009 5.5000000000000009 36.500000000000007 0.37500000000000006 1.5000000000000002 5.5000000000000009 15.500000000000002 0 9.5000000000000018 15.500000000000002 1.8065000000000002 4.5000000000000009 1.0000000180025095e-35 1.0000000180025095e-35 1.8655000000000002 1.5000000000000002 4.5000000000000009 -0.24999999999999994 10.666818694243567 3.5000000000000004 2.5000000000000004 6.5000000000000009 4.3387294754133618 1.5000000000000002 0.021031274778171554 1.0000000180025095e-35 1.6495000000000002 1.0000000180025095e-35 1.0821404213347046 3.5000000000000004 2.5000000000000004 1 1.0000000180025095e-35 2.5000000000000004 -0.32885761217454351 2 1.0000000180025095e-35 0.6830127018922193 3.5000000000000004 0.5773502691893837 1.0000000180025095e-35 0.6830127018922193 1.0000000180025095e-35 1.0000000180025095e-35 1.0000000180025095e-35 1.0000000180025095e-35 1.0000000180025095e-35
decision_type=2 2 2 2 2 2 2 2 2 2 2 2 2 2 2 2 2 2 2 2 2 1 2 2 8 2 2 2 8 2 2 2 8 2 2 2 8 2 2 2 8 2 10 2 2 9 2 2 2 9 2 2 2 2 2 2 2 2 2 2 2
left_child=2 4 32 5 7 9 14 18 12 13 20 16 25 -3 35 27 -8 33 26 21 -7 -9 -11 -17 -16 -6 -2 -10 -12 -21 -20 36 48 38 -14 -5 46 40 41 -38 -33 -4 43 -35 -39 -40 -19 -44 51 50 -50 54 -51 57 -1 59 -57 60 -59 -55 -34
right_child=1 3 17 6 8 10 11 19 15 22 28 -13 34 -15 24 23 -18 31 30 29 -22 -23 -24 -25 -26 -27 -28 -29 -30 -31 -32 37 53 42 -36 -37 39 44 45 -41 -42 -43 47 -45 -46 -47 -48 -49 49 52 -52 -53 -54 55 -56 56 -58 58 -60 -61 -62
leaf_value=0.0059226303487210667 0.0049861036935009845 0.024368473990874981 0.00025057738934535981 0.051065950651426571 0.012198990979862961 0.046176836746023436 0.12846456177350951 0.0066709573412290684 0.014869387012851003 0.035769869092622718 0.094154160811945234 0.23161212651625923 0.017732862861868301 0.033557191772501292 0.068206909177824862 0.024071026786281039 0.18827269571168082 0.0036059216206051708 0.0077239452615605487 0.012696592072379137 0.061724321318879012 0.010802575775713428 0.046118674729683236 0.044777678518045337 0.1238129706227261 0.015836590131940883 0.0072829146124462956 0.020789864281693392 0.066784877899620274 0.01870032391295455 0.010690499639545489 0.0031717000987886968 -0.0053501969960562945 0.0047895240333845034 0.021822313099622178 0.084505021033748504 0.00081096593798423301 0.0053837248149456434 0.0011953640718706954 0.0029989009916246007 0.0046974345952758697 0.0018790504633429406 0.002311143617757729 0.03140618259087205 0.0087858795442216382 -0.0011295598014105063 0.0065491988846371257 0.0058221308711494633 -0.0034244761769528505 -0.00029398488123482519 0.0073220600366592408 0.011893244314193726 0.0079714675545692441 -0.004526893099149068 -0.0012120632109818635 -0.0027656155824661256 0.0028021818128499115 -0.0051833844233450301 -0.0038698898652277957 -0.001611430879150118 -0.0050990447349175041
leaf_weight=37 18589 2881 5549 37 8412 1241 82 4770 1867 1268 108 23 3835 2250 20 4128 35 4433 7014 6258 399 13982 853 124 92 6809 18444 2651 90 1085 5548 7175 299324 159 1748 31 4900 2631 1767 3556 8580 7835 5600 32 915 4196 744 433 461 545 25 25 20 60 27 30 22 7117 218 28 1354
leaf_count=37 18589 2881 5549 37 8412 1241 82 4770 1867 1268 108 23 3835 2250 20 4128 35 4433 7014 6258 399 13982 853 124 92 6809 18444 2651 90 1085 5548 7175 299324 159 1748 31 4900 2631 1767 3556 8580 7835 5600 32 915 4196 744 433 461 545 25 25 20 60 27 30 22 7117 218 28 1354
internal_value=1.06658e-07 0.0130449 -0.00406706 0.039132 0.0107128 0.0361405 0.124109 0.00823466 0.0170553 0.0317712 0.0533802 0.160362 0.0152182 0.0283978 0.0959113 0.0214131 0.146356 0.00258911 0.0068656 0.0108366 0.0499594 0.00976092 0.0399318 0.0246749 0.113883 0.0138262 0.00613001 0.0183433 0.0817136 0.0135837 0.00903412 0.00366673 -0.00532612 0.0012012 0.0190132 0.0663102 0.00260364 0.00441763 0.000697061 0.00173106 0.0040026 0.00120389 0.0027683 0.00924886 0.00626161 -0.000440511 0.00402891 0.00256313 -0.000800598 -0.00132866 -0.00281377 0.00543531 -1.3781e-06 -0.00534286 0.00291268 -0.00241467 -0.000410009 -0.00534419 -0.00514435 -0.00359925 -0.00534907
internal_weight=482472 114674 367798 9410 105264 9090 320 75690 29574 7252 1838 140 20804 5131 180 8770 117 58505 49595 26095 1640 18752 2121 4252 112 15221 37033 4518 198 7343 12562 32934 309293 25571 5583 68 13633 19301 19347 8456 15755 13384 6224 191 3546 5963 5177 6033 1140 1051 486 89 565 308153 64 140 52 308013 7335 88 300678
internal_count=482472 114674 367798 9410 105264 9090 320 75690 29574 7252 1838 140 20804 5131 180 8770 117 58505 49595 26095 1640 18752 2121 4252 112 15221 37033 4518 198 7343 12562 32934 309293 25571 5583 68 13633 19301 19347 8456 15755 13384 6224 191 3546 5963 5177 6033 1140 1051 486 89 565 308153 64 140 52 308013 7335 88 300678
cat_boundaries=0 1 2 3
cat_threshold=4 118 1064
is_linear=0
shrinkage=0.02


Tree=13
num_leaves=63
num_cat=7
split_feature=13 13 14 13 13 13 39 13 39 7 39 7 39 29 2 39 13 41 7 43 7 7 13 16 8 35 2 29 7 2 42 16 27 33 27 35 16 16 19 39 43 35 13 42 1 0 39 27 0 0 0 19 18 1 1 8 19 8 13 42 3 43
split_gain=61460.1 16753.7 7400.7 5910.13 3658.93 1676.44 848.064 649.167 475.091 411.951 399.915 393.909 300.633 289.76 272.266 261.291 210.092 178.483 173.03 171.447 164.346 160.962 149.81 145.285 144.121 137.069 116.148 101.701 89.0636 88.1595 77.5218 74.2658 65.633 56.2649 46.9696 46.5346 40.9458 34.1965 33.2674 29.9905 26.1957 25.9351 20.0976 18.9729 54.083 15.9971 15.2935 13.802 12.5734 11.54 8.1879 7.65686 4.73068 3.92828 3.24677 2.88347 0.798222 0.840187 0.65527 1.25666 0.389613 0.299144
threshold=0.62500000000000011 2.291666666666667 0.28867513459332811 6.3750000000000009 1.3750000000000002 3.3750000000000004 50.500000000000007 0.95833333333333337 2.5000000000000004 12.16666666666667 4.5000000000000009 3.5000000000000004 28.500000000000004 2.4255000000000004 5.5000000000000009 1.5000000000000002 0.37500000000000006 12.500000000000002 1.5000000000000002 27.500000000000004 2.5000000000000004 2.8333333333333335 1.9583333333333337 0 2.0816659994661246 1.0000000180025095e-35 1.0000000180025095e-35 1.5295000000000003 2.5000000000000004 1.5000000000000002 1.5000000000000002 1 2 10.666818694243567 3 1.5000000000000002 4 5 0.25000000000000017 1.5000000000000002 1.5000000000000002 1.0000000180025095e-35 0.20833333333333334 1.5000000000000002 51.601329006244207 0.060961758245916105 2.5000000000000004 6 0.021031274778171554 0.08111040582798211 -0.32885761217454351 0.25000000000000017 0.68301270189221941 51.578086565602838 51.50451984977753 0.5773502691893837 0.6830127018922193 0.57735026918943533 1.0000000180025095e-35 1.0000000180025095e-35 1.0000000180025095e-35 1.0000000180025095e-35
decision_type=2 2 2 2 2 2 2 2 2 2 2 2 2 8 2 2 2 2 2 2 2 2 2 1 2 2 2 10 2 2 2 1 9 8 9 2 1 1 2 2 2 2 2 2 2 2 2 9 2 2 2 2 2 2 2 2 2 2 2 2 2 2
left_child=2 4 33 5 7 10 14 25 13 19 20 27 -13 18 35 23 34 -11 -6 -8 -3 -12 31 -9 -16 26 -2 -7 -15 -24 -17 -10 38 47 43 -5 40 42 45 -27 -34 -38 -36 46 -45 -18 -4 53 -39 -40 51 -49 -52 54 -1 58 60 -58 61 -60 -57 -35
right_child=1 3 16 6 8 11 9 15 22 17 21 12 -14 28 24 30 32 -19 -20 -21 -22 -23 29 -25 -26 39 -28 -29 -30 -31 -32 -33 36 55 37 -37 41 48 49 -41 -42 -43 -44 44 -46 -47 -48 50 -50 -51 52 -53 -54 -55 -56 56 57 -59 59 -61 -62 -63
leaf_value=-0.0014233619481130364 0.0047334639241651318 0.022369981576136823 0.0024171699214619899 0.04256061392171042 0.011979846720891979 0.045167337280604174 0.1121431839874346 0.0061355267886223511 0.015270966817245922 0.23494470729277683 0.031327227828463838 0.050656909900205348 0.078702788711988436 0.019702129693876337 0.13267366842219705 0.011917982317330798 0.0015393333361148256 0.15845987693123195 0.015924929376710282 0.16962556728001299 0.029715672656265967 0.042083041331659445 0.020203059530702602 0.0098112829494860186 0.09060337184585239 0.0080629804892302821 0.0070489875741412827 0.033404796624405528 0.030346069057835618 0.028348367571643607 0.016766956081908001 0.02046088567611783 0.0047503803278482288 -0.0052397757855451622 0.00036898377812739371 0.073330846139878933 0.0029323959670641566 0.00042228684347929592 0.0039884018389534613 0.010921785567649665 0.0093325203988922772 0.0057750761309445231 0.0021887933459131311 0.0052564159889889371 0.03873951191251928 -0.0014795059205228837 0.0070058889190355933 0.0023957516317782198 -0.0010832583929722885 0.00079710437016586267 -5.1806962715004976e-05 0.019316149473190308 0.0051647095465927988 0.0039498841932841715 -0.0042456592171103355 -0.0044363551537195843 -0.0033705038915980944 0.0017752343217531841 -0.0049061673451118518 -0.00063090828912598749 -0.0015792023284094676 -0.004210548722638493
leaf_weight=306 17575 2650 4221 28 9028 518 73 5956 1993 26 1313 1443 171 1975 57 9964 4129 23 8764 29 2255 966 912 17008 76 4363 17092 680 374 1274 1520 4290 11851 306328 3717 66 10429 6867 3165 2212 521 1464 6997 157 22 846 312 23 3278 529 318 20 89 35 349 60 22 30 1544 28 28 113
leaf_count=306 17575 2650 4221 28 9028 518 73 5956 1993 26 1313 1443 171 1975 57 9964 4129 23 8764 29 2255 966 912 17008 76 4363 17092 680 374 1274 1520 4290 11851 306328 3717 66 10429 6867 3165 2212 521 1464 6997 157 22 846 312 23 3278 529 318 20 89 35 349 60 22 30 1544 28 28 113
internal_value=1.11866e-07 0.012784 -0.00398571 0.0370234 0.0103731 0.0340879 0.114652 0.00807001 0.016466 0.151382 0.0289636 0.0471792 0.0536283 0.0147948 0.0902193 0.0100967 0.00253733 0.199044 0.0139231 0.128486 0.0257471 0.0358863 0.0204405 0.00886487 0.108633 0.00637723 0.0058751 0.0384908 0.0213968 0.0249501 0.0125598 0.0188715 0.0035934 -0.0052196 0.00117718 0.0641652 0.00412753 0.000768385 0.00209116 0.00902476 0.00493935 0.00327957 0.001556 0.00297887 0.00937166 0.00102598 0.002733 -0.000784586 -6.4114e-05 0.00353139 0.00192306 0.0102657 0.00108891 -0.00254148 -0.00292715 -0.005236 -0.00236638 -0.000401809 -0.00523731 -0.00483002 -0.00352726 -0.0052394
internal_weight=482472 114674 367798 10374 104300 9996 378 75690 28610 151 7184 2812 1614 20141 227 34448 58505 49 17792 102 4905 2279 8469 22964 133 41242 34667 1198 2349 2186 11484 6283 32934 309293 25571 94 24265 20859 8669 6575 12372 11893 10714 4712 179 4975 4533 1140 10145 3694 450 43 407 690 655 308153 140 52 308013 1572 88 306441
internal_count=482472 114674 367798 10374 104300 9996 378 75690 28610 151 7184 2812 1614 20141 227 34448 58505 49 17792 102 4905 2279 8469 22964 133 41242 34667 1198 2349 2186 11484 6283 32934 309293 25571 94 24265 20859 8669 6575 12372 11893 10714 4712 179 4975 4533 1140 10145 3694 450 43 407 690 655 308153 140 52 308013 1572 88 306441
cat_boundaries=0 1 2 3 4 5 6 7
cat_threshold=112 240 1920 14 7690 7690 1632
is_linear=0
shrinkage=0.02


Tree=14
num_leaves=56
num_cat=4
split_feature=13 13 28 13 13 13 7 13 7 44 43 32 44 44 7 35 13 44 31 19 41 13 31 41 31 34 34 13 42 35 44 27 7 27 34 16 16 19 7 34 42 1 32 7 43 31 7 1 13 1 42 19 18 37 43
split_gain=59026.9 16120.6 7153.14 5302.64 4666.01 1010.03 814.761 680.704 656.953 382.617 299.357 264.732 264.704 263.515 263.17 225.959 212.084 207.237 199.708 175.389 165.234 164.139 132.183 128.526 108.066 100.478 93.4204 85.5425 80.2392 79.8558 78.4881 63.223 55.5506 50.6784 43.0139 40.5169 33.8845 31.9501 25.8392 21.6436 18.56 51.6108 16.1869 14.6437 11.8089 9.54078 4.01246 2.24377 1.94822 1.72434 1.47303 0.744205 0.509479 0.307558 0.292751
threshold=0.62500000000000011 2.791666666666667 1.0000000180025095e-35 1.5416666666666667 6.9583333333333348 1.0416666666666667 3.5000000000000004 2.041666666666667 12.16666666666667 22.500000000000004 41.500000000000007 5.8174431076500506 1.0000000180025095e-35 1.0000000180025095e-35 2.8333333333333335 8.5000000000000018 0.37500000000000006 1.5000000000000002 1.0000000180025095e-35 -0.24999999999999994 1.5000000000000002 14.791666666666668 0.55279163979803403 1.0000000180025095e-35 1.078167150717112 6.5000000000000009 14.500000000000002 4.4583333333333348 1.5000000000000002 1.0000000180025095e-35 7.5000000000000009 0 13.16666666666667 1 2.5000000000000004 2 3 0.25000000000000017 0.50000000000000011 3.5000000000000004 1.5000000000000002 51.601329006244207 3.1076275027555638 1.0000000180025095e-35 1.0000000180025095e-35 0.2602811212249499 0.50000000000000011 51.511519812249105 1.0000000180025095e-35 51.560083713205437 1.0000000180025095e-35 0.6830127018922193 -0.5 1.5000000000000002 1.0000000180025095e-35
decision_type=2 2 10 2 2 2 2 2 2 2 2 8 2 2 2 2 2 2 8 2 2 2 8 2 8 2 2 2 2 2 2 9 2 9 2 1 1 2 2 2 2 2 10 2 2 8 2 2 2 2 2 2 2 2 2
left_child=2 3 46 5 6 18 17 13 10 11 15 -8 19 22 20 -6 33 24 29 -7 -9 32 -5 -20 -3 -15 -16 -11 -14 -2 -19 37 -10 40 38 -36 43 44 -33 -38 42 -42 -4 -35 -18 -39 48 -48 53 -49 51 -50 -52 54 -1
right_child=1 4 16 7 8 12 9 14 21 27 -12 -13 28 25 26 -17 31 30 23 -21 -22 -23 -24 -25 -26 -27 -28 -29 -30 -31 -32 34 -34 36 35 -37 39 45 -40 -41 41 -43 -44 -45 -46 -47 47 49 50 -51 52 -53 -54 -55 -56
leaf_value=-0.0051352242296999594 0.0047798896856845116 0.02429359356860375 0.0024628252721942377 0.012468465365441758 0.088810645017324316 0.0081216994174167344 0.04013366651097372 0.01850138234314138 0.17441735701127484 0.062708864634662992 0.17360161677650784 0.053987575911937327 0.013142472259889904 0.016905895615952314 0.027134800977314119 0.14055699677729025 0.00071266635243317394 0.036147645371565854 0.0064938635655465019 0.011438484236589028 0.024978030521888288 0.2189532292407492 0.017045021403903616 0.0093295718085744904 0.034901446933358976 0.022223164453227029 0.036620696349002953 0.089794165181870375 0.018124007133645353 0.0079855127523486107 0.04602809652515142 0.0022494200987149917 0.12836280957609414 0.00089980561084487809 0.0068218496198401606 0.0041859350717378821 -0.00032319913525880088 0.0026278607241168824 0.0042088641120294982 0.0014792480230532449 0.0052935471199452881 0.037964721132408487 0.0079279735762822004 0.0026744128199441596 0.0042482130692421812 0.0047011378447643186 -0.0050329531777289606 0.0046633578650653361 -0.0048372871231858747 -0.0027121893281028386 0.0010747089334156204 -0.0039576842149841454 -0.0029760139297555993 -0.0026546147763729096 -0.0041125217665519036
leaf_weight=306276 20223 904 4405 5380 191 11136 1096 3390 22 89 23 1111 7191 2477 1607 41 4563 1053 13748 14923 2944 23 4756 11951 668 3336 560 98 1577 3673 463 6072 20 3675 3124 10221 10615 2210 4836 3558 160 22 228 3766 412 1484 31 32 1370 21 23 535 27 20 112
leaf_count=306276 20223 904 4405 5380 191 11136 1096 3390 22 89 23 1111 7191 2477 1607 41 4563 1053 13748 14923 2944 23 4756 11951 668 3336 560 98 1577 3673 463 6072 20 3675 3124 10221 10615 2210 4836 3558 160 22 228 3766 412 1484 31 32 1370 21 23 535 27 20 112
internal_value=1.30793e-07 0.0125284 -0.003906 0.0107973 0.0450115 0.00842196 0.0406782 0.0189991 0.119246 0.0494351 0.104778 0.0471077 0.0110325 0.0165627 0.02357 0.0979555 0.00245243 0.0338893 0.00658877 0.0100211 0.0215117 0.176006 0.0146159 0.00781257 0.0288013 0.0199574 0.0295862 0.0769033 0.0140384 0.00527262 0.0391652 0.00352362 0.152487 0.00111807 0.00404808 0.00481124 0.000703433 0.00204934 0.00311813 0.000129197 0.00297171 0.00924281 0.00273178 0.00179555 0.00100546 0.00346076 -0.00512948 -0.000758929 -0.00513067 0.00174097 -0.00450132 -0.00459026 -0.00111268 -0.00513469 -0.00513485
internal_weight=482472 114674 367798 108872 5802 84422 5482 24450 320 2394 255 2207 34827 15949 8501 232 59351 3088 49595 26059 6334 65 10136 25699 1572 5813 2167 187 8768 23896 1516 32922 42 26429 24253 13345 21614 8669 10908 14173 4815 182 4633 7441 4975 3694 308447 84 308363 53 1955 1905 50 306408 306388
internal_count=482472 114674 367798 108872 5802 84422 5482 24450 320 2394 255 2207 34827 15949 8501 232 59351 3088 49595 26059 6334 65 10136 25699 1572 5813 2167 187 8768 23896 1516 32922 42 26429 24253 13345 21614 8669 10908 14173 4815 182 4633 7441 4975 3694 308447 84 308363 53 1955 1905 50 306408 306388
cat_boundaries=0 1 2 3 4
cat_threshold=1920 14 3074 7170
is_linear=0
shrinkage=0.02


Tree=15
num_leaves=59
num_cat=2
split_feature=13 13 28 13 13 13 13 39 13 43 39 46 46 39 35 13 34 19 33 39 1 19 33 39 41 34 39 46 18 34 35 35 19 46 46 28 45 29 0 39 45 33 47 46 25 16 41 8 46 0 13 0 19 46 39 18 37 45
split_gain=56689.4 15482.2 6869.95 5092.65 4481.24 970.033 775.436 739.859 653.748 323.879 322.222 303.586 277.095 252.145 213.876 203.697 192.944 190.763 188.547 185.244 183.955 152.268 146.982 136.782 128.323 120.054 105.797 104.483 86.5718 83.7383 66.538 63.166 60.0002 53.1197 49.3749 46.1044 34.9894 30.2489 27.807 26.9131 21.8016 20.6595 44.4408 18.5275 17.2271 14.3299 8.84074 5.94577 3.45634 1.1345 0.953736 0.720967 0.759808 0.4594 0.704363 0.415077 0.0969259 0.0267479
threshold=0.62500000000000011 2.791666666666667 1.0000000180025095e-35 1.5416666666666667 6.9583333333333348 1.0416666666666667 3.9583333333333335 50.500000000000007 2.041666666666667 61.500000000000007 28.500000000000004 5.5000000000000009 5.5000000000000009 4.5000000000000009 1.0000000180025095e-35 0.37500000000000006 13.500000000000002 -0.24999999999999994 4.4117448202839027 2.5000000000000004 51.52105903134202 -0.24999999999999994 2.5904310259223022 14.500000000000002 1.0000000180025095e-35 6.5000000000000009 26.500000000000004 11.500000000000002 0.25000000000000006 5.5000000000000009 3.5000000000000004 1.0000000180025095e-35 -0.24999999999999994 4.5000000000000009 3.5000000000000004 5.5000000000000009 3.5000000000000004 1.7755000000000003 0.021031274778171554 1.0000000180025095e-35 1.0000000180025095e-35 1.0821404213347046 3.5000000000000004 10.500000000000002 0 1 1.0000000180025095e-35 0.5773502691893837 1.5000000000000002 0.067123928805252059 1.0000000180025095e-35 -0.35041083712923721 0.6830127018922193 1.0000000180025095e-35 1.0000000180025095e-35 1.0000000180025095e-35 1.0000000180025095e-35 1.0000000180025095e-35
decision_type=2 2 10 2 2 2 2 2 2 2 2 2 2 2 2 2 2 2 8 2 2 2 10 2 2 2 2 2 2 2 2 2 2 2 2 10 2 8 2 2 2 10 2 2 9 1 2 2 2 2 2 2 2 2 2 2 2 2
left_child=2 3 47 5 6 19 13 20 14 18 16 17 31 22 21 34 -8 -7 -9 24 27 -5 -3 -14 -2 -16 -15 -6 -22 -13 -12 -10 35 -21 38 46 37 -34 40 -37 -4 42 -36 -38 -40 -43 -17 50 49 55 53 57 -53 56 -55 -49 -1 -52
right_child=1 4 15 8 7 11 10 9 12 -11 30 29 23 26 25 32 -18 -19 -20 33 28 -23 -24 -25 -26 -27 -28 -29 -30 -31 -32 -33 36 -35 41 39 43 -39 44 -41 -42 45 -44 -45 -46 -47 -48 48 -50 -51 51 52 -54 54 -56 -57 -58 -59
leaf_value=-0.0050361731201125646 0.0050798374430830627 0.036686897290631619 0.00016093261648713234 0.011728348746756337 0.057505245865401573 0.0074913963246123448 0.038119120566951534 0.083572677004904977 0.017090541732415598 0.21995412888734237 0.092924995590533521 0.011492149367342807 0.025640382441672799 0.039471266117867353 0.01595346928387548 0.0033136961975516644 0.054273412999746126 0.011076552226740538 0.14973151744653782 0.0078941710976350461 0.14943730284770332 0.016598495290992145 0.026235544941080657 0.041834916949748446 0.0072661747516014575 0.022020622910901878 0.058206001495512638 0.0938778992282117 0.098085981792417065 0.015167163875249834 0.067604038008287834 0.022306458870066385 0.0033006164451020101 0.011746025813561264 0.0047391394825724818 0.00076745387339722734 0.0066111873962573092 0.0050460233808565539 -0.0016421931836052821 0.0028982745720921451 0.0017768301069736481 0.0035996411794696603 0.030641648434102536 0.022466730674107871 0.00046122881780566525 0.00162314864034042 0.0051996798694073365 -0.0028179636306332467 0.0042861909419298176 0.0012782618651787439 -0.0051535981621693913 -0.0045933583818273064 -0.003459652190942031 -0.0048992676297169371 -0.0033601744115845235 -0.0051196767062675662 -0.0047161323178097564 -0.0044725178430477779
leaf_weight=298923 25098 943 5685 4381 59 10092 447 21 2342 23 70 4147 4401 1662 2241 2003 874 14418 96 2836 24 6205 1254 219 18768 3122 130 68 29 6170 102 1539 11493 2893 154 5470 1698 6069 2848 4185 8096 2505 32 30 3418 3691 1974 133 32 24 592 868 325 6985 121 41 379 24
leaf_count=298923 25098 943 5685 4381 59 10092 447 21 2342 23 70 4147 4401 1662 2241 2003 874 14418 96 2836 24 6205 1254 219 18768 3122 130 68 29 6170 102 1539 11493 2893 154 5470 1698 6069 2848 4185 8096 2505 32 30 3418 3691 1974 133 32 24 592 868 325 6985 121 41 379 24
internal_value=1.3291e-07 0.0122778 -0.00382787 0.0105814 0.0441112 0.00825352 0.0398646 0.116862 0.0186191 0.151344 0.0521598 0.0108118 0.0230986 0.0352628 0.0162315 0.00240342 0.0488071 0.00960036 0.137857 0.00645699 0.0900416 0.014583 0.0307215 0.026408 0.00601526 0.0194854 0.0408304 0.0769804 0.121339 0.01369 0.0779091 0.0191589 0.00345322 0.00983926 0.00109571 0.00243756 0.00417097 0.00390379 0.000607962 0.00169107 0.00111023 0.00262782 0.00919549 0.00688646 -0.000496696 0.00243066 0.00424981 -0.00502689 -0.00181243 -0.00279807 -0.00502929 -0.00457142 -0.00428451 -0.00503199 -0.00487306 -0.00336032 -0.00503577 -0.00512706
internal_weight=482472 114674 367798 108872 5802 84422 5482 320 24450 140 1493 34827 8501 3989 15949 59351 1321 24510 117 49595 180 10586 2197 4620 43866 5363 1792 127 53 10317 172 3881 32922 5729 26429 13632 19290 17562 20047 9655 13781 6382 186 1728 6266 6196 3977 308447 230 198 308217 1809 1193 306408 7106 174 299302 616
internal_count=482472 114674 367798 108872 5802 84422 5482 320 24450 140 1493 34827 8501 3989 15949 59351 1321 24510 117 49595 180 10586 2197 4620 43866 5363 1792 127 53 10317 172 3881 32922 5729 26429 13632 19290 17562 20047 9655 13781 6382 186 1728 6266 6196 3977 308447 230 198 308217 1809 1193 306408 7106 174 299302 616
cat_boundaries=0 1 2
cat_threshold=1792 7178
is_linear=0
shrinkage=0.02


Tree=16
num_leaves=62
num_cat=6
split_feature=13 13 14 13 13 13 13 39 13 39 39 31 13 31 39 39 13 30 1 31 30 46 7 31 31 19 41 46 18 39 31 35 31 27 33 46 35 19 19 0 27 1 46 25 27 0 30 27 0 0 25 30 46 8 41 19 46 46 13 0 44
split_gain=54444.5 14874.8 6558.6 4772.09 4088.72 1159.36 713.266 710.56 578.017 388.202 349.126 326.01 317.312 248.297 246.925 244.275 185.642 181.812 176.67 171.831 162.762 157.645 152.285 139.191 130.704 113.136 107.66 100.346 83.1436 80.675 76.7288 64.4693 60.9745 59.8014 48.5581 45.6175 39.3672 35.7726 29.8956 25.1896 20.2427 48.7309 20.033 17.7111 15.4387 15.3384 13.6503 13.1478 11.02 8.96676 5.30018 4.68449 3.61896 2.6286 2.42802 0.74746 0.928033 0.685215 0.815308 0.376849 0.181834
threshold=0.62500000000000011 2.541666666666667 0.28867513459332811 6.9583333333333348 1.3750000000000002 3.7916666666666674 1.8750000000000002 50.500000000000007 0.95833333333333337 9.5000000000000018 4.5000000000000009 0.57175533546371315 13.375000000000002 3.0172876515456042 2.5000000000000004 1.5000000000000002 0.37500000000000006 0.87567702729650809 51.52105903134202 0.85348513309026219 1.1763446253193328 42.500000000000007 2.8333333333333335 0.52819234487270528 1.0000000180025095e-35 -0.24999999999999994 1.0000000180025095e-35 11.500000000000002 0.25000000000000006 1.0000000180025095e-35 0.57175533546371315 1.0000000180025095e-35 1.1633543492760816 0 10.666818694243567 3.5000000000000004 1.0000000180025095e-35 -0.24999999999999994 0.25000000000000017 0.021031274778171554 1 51.571408165729785 3.5000000000000004 2 3 0.060961758245916105 1.1664266761246509 4 0.08111040582798211 -0.32238253742979711 5 0.83573120051924199 3.5000000000000004 0.5773502691893837 1.0000000180025095e-35 0.6830127018922193 1.0000000180025095e-35 1.0000000180025095e-35 1.0000000180025095e-35 -0.012931823625689048 1.0000000180025095e-35
decision_type=2 2 2 2 2 2 2 2 2 2 2 8 2 8 2 2 2 10 2 8 8 2 2 8 8 2 2 2 2 2 8 2 8 9 8 2 2 2 2 2 9 2 2 9 9 2 8 9 2 2 9 10 2 2 2 2 2 2 2 2 2
left_child=2 4 34 5 8 10 14 18 24 13 19 26 17 -7 25 23 35 -9 27 -3 -13 -11 -12 -10 31 -6 -8 -5 -20 -26 -17 -2 -16 38 47 39 37 -35 45 44 41 -37 -38 -41 -4 -18 -42 49 -40 -1 54 -51 -52 57 -49 59 -57 60 -59 -55 -36
right_child=1 3 16 7 6 9 11 12 15 21 22 20 -14 -15 32 30 33 -19 28 -21 -22 -23 -24 -25 29 -27 -28 -29 -30 -31 -32 -33 -34 36 53 40 42 -39 48 43 46 -43 -44 -45 -46 -47 -48 50 -50 51 52 -53 -54 55 -56 56 -58 58 -60 -61 -62
leaf_value=0.013549512709890093 0.0043837794222495877 0.021950214790089132 0.002193992585846872 0.056355140913846136 0.01072804295810373 0.034504700054465536 0.011581667436075298 0.16421612800787327 0.0073230950614445759 0.059874103107568369 0.031630010729116739 0.021070635172282595 0.2099153834802133 0.05294110213965178 0.016633084522929487 0.01073227717533886 0.0014412734858722368 0.11257874116523942 0.14644855777422586 0.031055844525008973 0.027947196724789184 0.11210425164550543 0.04226387515576336 0.010767672430063836 0.005683762070473373 0.014211967193992578 0.018366490002662654 0.092000341570990934 0.096124261072997388 0.00819418249089017 0.014206600968618142 0.007549676824089707 0.02199558927308793 0.0026075918655184332 -0.0049343441134452265 0.0052281096659971202 0.0046607960752872608 0.004274911591549798 0.0037602485378771594 -0.0016632920584193397 0.002127751156978878 0.033580327012709209 0.0079879985040085238 0.0005268952903977359 0.00068434072032110276 -0.0015147562307387097 0.0060202991451535903 -0.00074549936331235443 0.00064167973111843124 0.0093001179859556003 -0.0038707647904937647 0.00081537979559635559 0.0014984323722975596 -0.0040443458574921341 0.003995291691906047 -0.0025751999417940774 0.002832859185608951 -0.0047752782050454754 -0.0035335854953582138 -0.00097385358242761525 -0.0041803728742524984
leaf_weight=28 17378 1491 3785 59 6529 667 1365 46 16389 627 1008 4084 27 520 4540 7684 4129 67 24 1867 2077 24 1157 6575 9048 8692 2973 68 29 11796 3800 3020 1043 8716 300550 181 1737 12571 3165 2653 5630 28 1241 3310 9599 846 385 234 529 29 486 254 56 67 53 30 22 7117 218 21 128
leaf_count=28 17378 1491 3785 59 6529 667 1365 46 16389 627 1008 4084 27 520 4540 7684 4129 67 24 1867 2077 24 1157 6575 9048 8692 2973 68 29 11796 3800 3020 1043 8716 300550 181 1737 12571 3165 2653 5630 28 1241 3310 9599 846 385 234 529 29 486 254 56 67 53 30 22 7117 218 21 128
internal_value=1.31956e-07 0.0120323 -0.00375131 0.0389161 0.0101023 0.0356293 0.0161819 0.114524 0.00758798 0.0493882 0.0310504 0.0204316 0.148317 0.0425813 0.0140372 0.00950034 0.00238941 0.133599 0.0882408 0.0270128 0.0233889 0.0617996 0.0373129 0.00830934 0.00599066 0.0127175 0.0162316 0.0754408 0.118913 0.00710445 0.0118819 0.0048525 0.0176349 0.00338212 -0.00491288 0.00111085 0.00389193 0.00359222 0.0019484 0.000631725 0.00260019 0.00861432 0.00604732 -0.000449447 0.00111342 0.0009386 0.00237296 -0.000792789 0.00331365 0.00266728 -0.00209771 0.00168484 -0.00325594 -0.00492812 0.000125601 -0.00218825 -0.000287175 -0.00492936 -0.00473837 -0.00331161 -0.00493402
internal_weight=482472 114674 367798 7681 106993 7361 31303 320 75690 1838 5523 10499 140 1187 20804 34448 58505 113 180 3358 6161 651 2165 22964 41242 15221 4338 127 53 20844 11484 20398 5583 32934 309293 25571 24265 21287 8669 19347 6224 209 2978 5963 13384 4975 6015 1140 3694 311 829 283 542 308153 287 140 52 308013 7335 88 300678
internal_count=482472 114674 367798 7681 106993 7361 31303 320 75690 1838 5523 10499 140 1187 20804 34448 58505 113 180 3358 6161 651 2165 22964 41242 15221 4338 127 53 20844 11484 20398 5583 32934 309293 25571 24265 21287 8669 19347 6224 209 2978 5963 13384 4975 6015 1140 3694 311 829 283 542 308153 287 140 52 308013 7335 88 300678
cat_boundaries=0 1 2 3 4 5 6
cat_threshold=1920 2 1792 78 158 736
is_linear=0
shrinkage=0.02


Tree=17
num_leaves=62
num_cat=8
split_feature=13 13 13 14 13 13 39 13 31 13 13 10 39 44 0 46 46 44 46 7 31 16 31 13 47 46 29 42 46 31 16 32 27 33 0 34 39 27 16 42 7 8 29 32 27 46 24 1 0 16 18 46 33 1 33 8 46 39 18 29 44
split_gain=52292.8 15100.2 5422.93 4735.75 3074.24 1641.82 1028.63 680.079 513.63 390.182 328.695 302.776 287.558 287.446 254.705 247.113 230.027 222.335 220.571 166.371 165.725 155.891 142.826 116.782 110.697 104.498 90.8191 84.9632 79.6458 70.6034 69.6097 62.6927 57.2208 46.6352 33.964 33.2946 28.3334 23.4037 22.8678 20.9082 18.8892 17.999 16.3179 13.7707 12.6819 9.69707 8.04215 8.04062 7.59523 4.66105 4.55793 3.8264 3.54903 3.47339 3.25558 2.52451 0.65808 0.80818 0.572128 0.60827 0.174633
